{"learner":{"attributes":{"scikit_learn":"{\"_estimator_type\": \"regressor\"}"},"feature_names":["Category","Brand","Rating","Discount (%)","Reviews Count"],"feature_types":["int","int","float","float","float"],"gradient_booster":{"model":{"gbtree_model_param":{"num_parallel_tree":"1","num_trees":"200"},"iteration_indptr":[0,1,2,3,4,5,6,7,8,9,10,11,12,13,14,15,16,17,18,19,20,21,22,23,24,25,26,27,28,29,30,31,32,33,34,35,36,37,38,39,40,41,42,43,44,45,46,47,48,49,50,51,52,53,54,55,56,57,58,59,60,61,62,63,64,65,66,67,68,69,70,71,72,73,74,75,76,77,78,79,80,81,82,83,84,85,86,87,88,89,90,91,92,93,94,95,96,97,98,99,100,101,102,103,104,105,106,107,108,109,110,111,112,113,114,115,116,117,118,119,120,121,122,123,124,125,126,127,128,129,130,131,132,133,134,135,136,137,138,139,140,141,142,143,144,145,146,147,148,149,150,151,152,153,154,155,156,157,158,159,160,161,162,163,164,165,166,167,168,169,170,171,172,173,174,175,176,177,178,179,180,181,182,183,184,185,186,187,188,189,190,191,192,193,194,195,196,197,198,199,200],"tree_info":[0,0,0,0,0,0,0,0,0,0,0,0,0,0,0,0,0,0,0,0,0,0,0,0,0,0,0,0,0,0,0,0,0,0,0,0,0,0,0,0,0,0,0,0,0,0,0,0,0,0,0,0,0,0,0,0,0,0,0,0,0,0,0,0,0,0,0,0,0,0,0,0,0,0,0,0,0,0,0,0,0,0,0,0,0,0,0,0,0,0,0,0,0,0,0,0,0,0,0,0,0,0,0,0,0,0,0,0,0,0,0,0,0,0,0,0,0,0,0,0,0,0,0,0,0,0,0,0,0,0,0,0,0,0,0,0,0,0,0,0,0,0,0,0,0,0,0,0,0,0,0,0,0,0,0,0,0,0,0,0,0,0,0,0,0,0,0,0,0,0,0,0,0,0,0,0,0,0,0,0,0,0,0,0,0,0,0,0,0,0,0,0,0,0,0,0,0,0,0,0],"trees":[{"base_weights":[-4.2289095E0,-2.5917892E1,1.0874071E2,-3.5993378E0,-8.8827446E1,-4.4758792E2,1.7767444E2,-3.5063744E1,1.15049385E2,-5.4232094E1,-5.8934216E2,-2.7331387E2,-8.8113776E2,3.669708E2,4.349063E1,-2.2589244E2,-1.3515735E0,2.5442374E2,-1.0786412E1,1.821555E2,-8.458578E1,2.9851102E2,-7.446036E2,-3.7777734E2,1.23701065E2,5.3782207E1,-1.2137614E3,9.918446E2,3.177413E2,-2.767975E2,1.7520682E2,-1.3793588E2,-5.360914E2,1.06694275E2,-7.397318E1,6.116412E2,1.847616E2,6.121429E2,-9.965105E1,3.046653E2,-7.6276776E2,2.3070715E2,-1.0968559E2,1.8564781E2,5.3323402E1,-1.2786547E3,-5.0429504E2,-1.3333365E2,-1.299115E3,-1.3306691E2,-5.8127605E1,4.964108E1,1.0976005E2,7.627058E1,4.3162457E2,-6.328985E2,2.520301E2,1.6773184E1,3.5771103E2,-1.08237526E2,-7.9587245E0,-4.969576E0,-6.523809E1,5.4232755E0,6.393545E1,-2.3132717E1,-1.7311085E0,1.6366968E1,8.799553E1,3.7707935E1,4.562107E0,-3.4708633E0,9.180844E1,-1.8005339E1,1.5240242E1,3.880383E1,-3.837533E1,-1.2793893E2,-5.208548E1,-3.4029537E1,5.1018776E1,9.695339E0,-1.6854958E1,1.4286437E1,2.1700972E1,-1.172745E2,-1.465504E2,5.4793682E1,-6.740364E1,-5.5157375E1,2.7228653E1,-1.0355499E2,-1.456335E2,3.332664E1,-3.6077217E1,9.468982E1,2.5388615E1,-7.282873E1,1.1625928E2,5.408972E1,-6.279546E1,2.6778416E1,-2.6261114E1,4.3545563E1,-4.7937603E0],"categories":[],"categories_nodes":[],"categories_segments":[],"categories_sizes":[],"default_left":[0,0,0,0,0,0,0,0,0,0,0,0,0,0,0,0,0,0,0,0,0,0,0,0,0,0,0,0,0,0,0,0,0,0,0,0,0,0,0,0,0,0,0,0,0,0,0,0,0,0,0,0,0,0,0,0,0,0,0,0,0,0,0,0,0,0,0,0,0,0,0,0,0,0,0,0,0,0,0,0,0,0,0,0,0,0,0,0,0,0,0,0,0,0,0,0,0,0,0,0,0,0,0,0,0],"id":0,"left_children":[1,3,5,7,9,11,13,15,17,19,21,23,25,27,29,31,33,35,37,39,41,43,45,47,-1,-1,49,51,53,55,57,59,61,63,65,67,69,71,73,75,77,79,81,83,-1,85,87,89,91,-1,-1,-1,-1,93,95,97,99,101,103,-1,-1,-1,-1,-1,-1,-1,-1,-1,-1,-1,-1,-1,-1,-1,-1,-1,-1,-1,-1,-1,-1,-1,-1,-1,-1,-1,-1,-1,-1,-1,-1,-1,-1,-1,-1,-1,-1,-1,-1,-1,-1,-1,-1,-1,-1],"loss_changes":[6.1777164E7,2.9698156E7,1.5581808E8,5.82944E7,9.587849E7,3.360847E7,9.178147E7,7.9398856E7,5.7405536E7,3.7197468E7,4.9572336E7,5.111268E7,6.106617E7,4.579741E7,8.931646E7,5.048335E7,8.2317304E7,3.8532656E7,9.5329336E7,6.853218E7,3.6373364E7,1.331552E6,3.849797E7,6.761655E7,0E0,0E0,6.916528E6,5.1662E6,3.821885E7,1.16350504E8,4.3366216E7,7.954312E7,2.3101728E7,1.1780587E8,5.5935028E7,3.026584E7,3.4796504E7,4.258009E7,3.0567832E7,3.0166776E7,7.832092E6,5.427263E7,5.177243E7,1.9984375E4,0E0,1.4152E5,3.8234056E7,4.0695724E7,1.10248E6,0E0,0E0,0E0,0E0,5.0326456E7,8.63064E7,6.4045184E7,6.363512E7,5.645366E7,2.2002144E7,0E0,0E0,0E0,0E0,0E0,0E0,0E0,0E0,0E0,0E0,0E0,0E0,0E0,0E0,0E0,0E0,0E0,0E0,0E0,0E0,0E0,0E0,0E0,0E0,0E0,0E0,0E0,0E0,0E0,0E0,0E0,0E0,0E0,0E0,0E0,0E0,0E0,0E0,0E0,0E0,0E0,0E0,0E0,0E0,0E0,0E0],"parents":[2147483647,0,0,1,1,2,2,3,3,4,4,5,5,6,6,7,7,8,8,9,9,10,10,11,11,12,12,13,13,14,14,15,15,16,16,17,17,18,18,19,19,20,20,21,21,22,22,23,23,26,26,27,27,28,28,29,29,30,30,31,31,32,32,33,33,34,34,35,35,36,36,37,37,38,38,39,39,40,40,41,41,42,42,43,43,45,45,46,46,47,47,48,48,53,53,54,54,55,55,56,56,57,57,58,58],"right_children":[2,4,6,8,10,12,14,16,18,20,22,24,26,28,30,32,34,36,38,40,42,44,46,48,-1,-1,50,52,54,56,58,60,62,64,66,68,70,72,74,76,78,80,82,84,-1,86,88,90,92,-1,-1,-1,-1,94,96,98,100,102,104,-1,-1,-1,-1,-1,-1,-1,-1,-1,-1,-1,-1,-1,-1,-1,-1,-1,-1,-1,-1,-1,-1,-1,-1,-1,-1,-1,-1,-1,-1,-1,-1,-1,-1,-1,-1,-1,-1,-1,-1,-1,-1,-1,-1,-1,-1],"split_conditions":[9E0,7E0,-1.237509E0,5E0,1.4901481E0,1E1,1.263195E-1,-1.1738853E0,1.2E1,2E0,2E0,1.0581614E0,-1.4648138E0,-1.2854877E0,-7.27476E-1,-1.2854877E0,-5.7862006E-2,-1.2854877E0,-1.237509E0,1.2628433E0,-1.39709E0,-6.158737E-1,-6.158737E-1,8.3495665E-1,1.23701065E2,5.3782207E1,1.0581614E0,-7.828995E-1,-2.810667E-1,9E0,1.0355386E0,-1.237509E0,-3.2829002E-1,1.4901481E0,-5.5559474E-1,6E0,6E0,-1.4648138E0,1.1697637E0,1.1697637E0,-3.9266902E-1,5E0,-1.0102043E0,-1.6202947E0,5.3323402E1,8E0,-2.810667E-1,-9.506807E-1,9.46559E-1,-1.3306691E2,-5.8127605E1,4.964108E1,1.0976005E2,-3.2829002E-1,1.6534266E-1,1.7174528E0,-9.506807E-1,5.80929E-1,1.7174528E0,-1.08237526E2,-7.9587245E0,-4.969576E0,-6.523809E1,5.4232755E0,6.393545E1,-2.3132717E1,-1.7311085E0,1.6366968E1,8.799553E1,3.7707935E1,4.562107E0,-3.4708633E0,9.180844E1,-1.8005339E1,1.5240242E1,3.880383E1,-3.837533E1,-1.2793893E2,-5.208548E1,-3.4029537E1,5.1018776E1,9.695339E0,-1.6854958E1,1.4286437E1,2.1700972E1,-1.172745E2,-1.465504E2,5.4793682E1,-6.740364E1,-5.5157375E1,2.7228653E1,-1.0355499E2,-1.456335E2,3.332664E1,-3.6077217E1,9.468982E1,2.5388615E1,-7.282873E1,1.1625928E2,5.408972E1,-6.279546E1,2.6778416E1,-2.6261114E1,4.3545563E1,-4.7937603E0],"split_indices":[0,0,2,0,2,0,2,3,1,1,1,3,2,3,3,3,3,3,2,2,3,3,3,3,0,0,3,2,3,1,2,2,2,2,2,0,0,2,3,3,3,1,2,3,0,0,3,3,3,0,0,0,0,2,3,2,3,2,2,0,0,0,0,0,0,0,0,0,0,0,0,0,0,0,0,0,0,0,0,0,0,0,0,0,0,0,0,0,0,0,0,0,0,0,0,0,0,0,0,0,0,0,0,0,0],"split_type":[0,0,0,0,0,0,0,0,0,0,0,0,0,0,0,0,0,0,0,0,0,0,0,0,0,0,0,0,0,0,0,0,0,0,0,0,0,0,0,0,0,0,0,0,0,0,0,0,0,0,0,0,0,0,0,0,0,0,0,0,0,0,0,0,0,0,0,0,0,0,0,0,0,0,0,0,0,0,0,0,0,0,0,0,0,0,0,0,0,0,0,0,0,0,0,0,0,0,0,0,0,0,0,0,0],"sum_hessian":[2.5211E4,2.1151E4,4.06E3,1.5613E4,5.538E3,4.47E2,3.613E3,1.2341E4,3.272E3,5.181E3,3.57E2,3.2E2,1.27E2,1.498E3,2.115E3,1.852E3,1.0489E4,1.552E3,1.72E3,5.89E2,4.592E3,5.3E1,3.04E2,3E2,2E1,2.4E1,1.03E2,1.08E2,1.39E3,6.16E2,1.499E3,1.444E3,4.08E2,4.216E3,6.273E3,2.52E2,1.3E3,2.14E2,1.506E3,5.22E2,6.7E1,3.38E2,4.254E3,3.7E1,1.6E1,9.3E1,2.11E2,2.38E2,6.2E1,8.6E1,1.7E1,2E1,8.8E1,4.46E2,9.44E2,3.68E2,2.48E2,8.03E2,6.96E2,8.3E1,1.361E3,7.9E1,3.29E2,3.839E3,3.77E2,1.66E3,4.613E3,9.5E1,1.57E2,5.45E2,7.55E2,6.9E1,1.45E2,1.142E3,3.64E2,4.66E2,5.6E1,2E1,4.7E1,1.11E2,2.27E2,9.43E2,3.311E3,1.8E1,1.9E1,6.4E1,2.9E1,2.9E1,1.82E2,1.17E2,1.21E2,2.6E1,3.6E1,2.81E2,1.65E2,2.41E2,7.03E2,3.5E2,1.8E1,1.87E2,6.1E1,4.23E2,3.8E2,5.84E2,1.12E2],"tree_param":{"num_deleted":"0","num_feature":"5","num_nodes":"105","size_leaf_vector":"1"}},{"base_weights":[1.1585916E0,-2.8936466E1,1.8226112E2,2.1640749E2,-4.4301987E1,-9.758515E1,2.3750308E2,3.0039426E2,-4.448155E2,-7.010718E1,1.0076018E2,-6.906448E2,7.72064E1,3.9209042E2,1.04989426E2,3.4583008E2,-3.1362885E2,-1.1702647E2,-1.4173434E1,-3.272005E2,-5.4335594E1,-5.039685E2,1.9436526E2,-1.0575781E2,-1.4756891E2,1.1082451E3,-5.060958E1,2.5139865E2,7.0904565E2,-3.8907208E2,3.0765622E2,2.987558E2,8.383979E2,1.15061424E2,-1.143516E2,-8.95454E1,1.4458015E1,-5.5508293E1,-5.1050024E2,-4.4349945E1,-4.9501254E2,-6.2436194E2,4.1264744E1,3.705258E2,-2.6183449E1,-1.6560177E1,-1.1449561E1,8.297308E1,1.3441347E2,2.2527675E2,-7.398965E2,3.3506204E2,-6.4370374E2,5.608501E2,1.0519974E3,-7.53499E2,-6.7760445E1,5.823058E2,-8.405254E0,3.355437E0,4.3670773E1,1.6284765E1,1.0612212E2,4.3749134E1,-2.365962E1,-5.053417E0,-1.2575835E1,-4.316724E1,6.701571E1,-5.936798E1,6.0873535E1,1.3221323E1,-6.2982483E0,9.3194595E1,-7.206588E1,-4.1499817E1,-1.0954662E2,7.134973E1,-9.575728E1,4.4794586E1,-1.0088772E1,-4.8926815E1,2.1038097E1,-2.0315954E1,8.606377E1,-1.6967007E1,-9.2379425E1,5.433423E0,5.0107845E1,-1.0313171E2,-2.5158854E0,1.1542604E2,3.76032E1,-1.4845494E1,1.275678E2,-1.00356766E2,2.404697E0,-3.2083584E1,4.5445217E1,-6.0847564E0,6.8498665E1,7.8395157E0,-1.25809105E2],"categories":[],"categories_nodes":[],"categories_segments":[],"categories_sizes":[],"default_left":[0,0,0,0,0,0,0,0,0,0,0,0,0,0,0,0,0,0,0,0,0,0,0,0,0,0,0,0,0,0,0,0,0,0,0,0,0,0,0,0,0,0,0,0,0,0,0,0,0,0,0,0,0,0,0,0,0,0,0,0,0,0,0,0,0,0,0,0,0,0,0,0,0,0,0,0,0,0,0,0,0,0,0,0,0,0,0,0,0,0,0,0,0,0,0,0,0,0,0,0,0,0,0],"id":1,"left_children":[1,3,5,7,9,11,13,15,17,19,21,23,25,27,29,31,33,-1,35,37,39,41,43,-1,45,47,49,51,53,55,57,59,61,63,-1,65,-1,67,69,71,73,75,77,79,81,-1,-1,-1,-1,83,85,87,89,91,93,95,97,99,101,-1,-1,-1,-1,-1,-1,-1,-1,-1,-1,-1,-1,-1,-1,-1,-1,-1,-1,-1,-1,-1,-1,-1,-1,-1,-1,-1,-1,-1,-1,-1,-1,-1,-1,-1,-1,-1,-1,-1,-1,-1,-1,-1,-1],"loss_changes":[1.3834456E8,8.206387E7,5.593932E7,7.138371E7,7.668598E7,6.1939428E7,6.184381E7,3.188504E7,4.52827E7,7.0498696E7,1.7523594E8,2.6945016E7,6.0939936E7,6.1984384E7,1.6313112E8,2.4351232E7,2.8236972E7,0E0,1.113779E6,5.0021776E7,7.208817E7,2.72674E7,1.0413301E8,0E0,1.4438E4,2.235356E6,7.85146E7,7.263171E7,2.116264E7,5.545179E7,1.00266E8,3.547284E7,1.3675784E7,6.1129105E6,0E0,8.264572E4,0E0,1.1111482E8,5.6219936E7,5.2727696E7,1.17553176E8,3.308032E7,5.1713504E7,5.442552E7,1.3057623E8,0E0,0E0,0E0,0E0,8.047729E7,1.2217136E7,4.121856E7,1.9873816E7,3.2577528E7,3.4559664E7,4.3189784E7,3.3582068E7,4.085411E7,5.8457236E7,0E0,0E0,0E0,0E0,0E0,0E0,0E0,0E0,0E0,0E0,0E0,0E0,0E0,0E0,0E0,0E0,0E0,0E0,0E0,0E0,0E0,0E0,0E0,0E0,0E0,0E0,0E0,0E0,0E0,0E0,0E0,0E0,0E0,0E0,0E0,0E0,0E0,0E0,0E0,0E0,0E0,0E0,0E0,0E0],"parents":[2147483647,0,0,1,1,2,2,3,3,4,4,5,5,6,6,7,7,8,8,9,9,10,10,11,11,12,12,13,13,14,14,15,15,16,16,18,18,19,19,20,20,21,21,22,22,24,24,25,25,26,26,27,27,28,28,29,29,30,30,31,31,32,32,33,33,35,35,37,37,38,38,39,39,40,40,41,41,42,42,43,43,44,44,49,49,50,50,51,51,52,52,53,53,54,54,55,55,56,56,57,57,58,58],"right_children":[2,4,6,8,10,12,14,16,18,20,22,24,26,28,30,32,34,-1,36,38,40,42,44,-1,46,48,50,52,54,56,58,60,62,64,-1,66,-1,68,70,72,74,76,78,80,82,-1,-1,-1,-1,84,86,88,90,92,94,96,98,100,102,-1,-1,-1,-1,-1,-1,-1,-1,-1,-1,-1,-1,-1,-1,-1,-1,-1,-1,-1,-1,-1,-1,-1,-1,-1,-1,-1,-1,-1,-1,-1,-1,-1,-1,-1,-1,-1,-1,-1,-1,-1,-1,-1,-1],"split_conditions":[1.1851182E0,-1.5987763E0,-1.1738853E0,1.4901481E0,9E0,1.2999979E0,2.76945E-1,1E1,4E0,-1.3993226E0,-1.237509E0,8.0823374E-1,1E0,-2.810667E-1,-5.5559474E-1,-1.6114625E0,-7.27476E-1,-1.1702647E2,-1.6946433E-1,-2.810667E-1,1.1484694E0,9.5888275E-1,1E1,-1.0575781E2,2E0,1.0355386E0,1.2628433E0,1.4901481E0,5.80929E-1,5E0,6E0,-5.7862006E-2,1E0,-5.5559474E-1,-1.143516E2,1.7174528E0,1.4458015E1,-7.27476E-1,1.616173E0,-1.237509E0,-1.5086924E0,8.3495665E-1,-1.4648138E0,1.5045707E0,-6.158737E-1,-1.6560177E1,-1.1449561E1,8.297308E1,1.3441347E2,1.6065787E0,2E0,4E0,6E0,2E0,3E0,1.6425227E0,1.0581614E0,-3.2829002E-1,1.616173E0,3.355437E0,4.3670773E1,1.6284765E1,1.0612212E2,4.3749134E1,-2.365962E1,-5.053417E0,-1.2575835E1,-4.316724E1,6.701571E1,-5.936798E1,6.0873535E1,1.3221323E1,-6.2982483E0,9.3194595E1,-7.206588E1,-4.1499817E1,-1.0954662E2,7.134973E1,-9.575728E1,4.4794586E1,-1.0088772E1,-4.8926815E1,2.1038097E1,-2.0315954E1,8.606377E1,-1.6967007E1,-9.2379425E1,5.433423E0,5.0107845E1,-1.0313171E2,-2.5158854E0,1.1542604E2,3.76032E1,-1.4845494E1,1.275678E2,-1.00356766E2,2.404697E0,-3.2083584E1,4.5445217E1,-6.0847564E0,6.8498665E1,7.8395157E0,-1.25809105E2],"split_indices":[4,4,3,2,0,4,3,0,0,4,2,2,0,3,2,4,3,0,3,3,4,4,0,0,0,2,2,2,2,0,0,3,0,2,0,2,0,3,3,2,3,3,2,3,3,0,0,0,0,4,0,0,0,0,0,4,3,2,3,0,0,0,0,0,0,0,0,0,0,0,0,0,0,0,0,0,0,0,0,0,0,0,0,0,0,0,0,0,0,0,0,0,0,0,0,0,0,0,0,0,0,0,0],"split_type":[0,0,0,0,0,0,0,0,0,0,0,0,0,0,0,0,0,0,0,0,0,0,0,0,0,0,0,0,0,0,0,0,0,0,0,0,0,0,0,0,0,0,0,0,0,0,0,0,0,0,0,0,0,0,0,0,0,0,0,0,0,0,0,0,0,0,0,0,0,0,0,0,0,0,0,0,0,0,0,0,0,0,0,0,0,0,0,0,0,0,0,0,0,0,0,0,0,0,0,0,0,0,0],"sum_hessian":[2.5381E4,2.1765E4,3.616E3,1.282E3,2.0483E4,5.96E2,3.02E3,1.138E3,1.44E2,1.739E4,3.093E3,1.35E2,4.61E2,1.393E3,1.627E3,1.06E3,7.8E1,5.3E1,9.1E1,1.004E3,1.6386E4,4.14E2,2.679E3,8E1,5.5E1,5E1,4.11E2,9.66E2,4.27E2,4.73E2,1.154E3,9.69E2,9.1E1,5.2E1,2.6E1,6.2E1,2.9E1,4.05E2,5.99E2,1.6024E4,3.62E2,3.39E2,7.5E1,1.489E3,1.19E3,3.3E1,2.2E1,2.5E1,2.5E1,2.94E2,1.17E2,8.84E2,8.2E1,3E2,1.27E2,2.21E2,2.52E2,6.17E2,5.37E2,3.32E2,6.37E2,2.3E1,6.8E1,2.7E1,2.5E1,3.1E1,3.1E1,2.67E2,1.38E2,5.58E2,4.1E1,1.529E3,1.4495E4,4.9E1,3.13E2,2.36E2,1.03E2,4.5E1,3E1,1.279E3,2.1E2,4.02E2,7.88E2,1.76E2,1.18E2,2.9E1,8.8E1,3.29E2,5.55E2,5E1,3.2E1,7E1,2.3E2,2E1,1.07E2,1.67E2,5.4E1,1.7E2,8.2E1,8.5E1,5.32E2,5.03E2,3.4E1],"tree_param":{"num_deleted":"0","num_feature":"5","num_nodes":"103","size_leaf_vector":"1"}},{"base_weights":[2.668511E0,-2.4672848E1,1.6587119E2,-4.9049637E1,1.0354336E2,1.8017802E2,-1.0589286E3,-3.6172707E1,-3.6821835E2,-3.5296616E2,1.7058487E2,-8.031101E1,2.3049892E2,-8.31781E1,-1.2672019E2,3.9532925E2,-4.286425E1,-1.4301714E1,-7.9888324E2,9.049125E1,-4.2717618E2,3.195117E2,-3.0436798E1,-6.1526483E2,8.299399E1,3.8798508E2,9.206232E1,6.054589E2,-1.034171E2,1.2686117E2,-6.160672E1,1.0377008E2,-1.1045359E2,-1.3148608E3,-6.0500793E2,-5.3355457E2,8.433706E1,2.400245E2,7.188808E2,-3.9359808E2,1.5935535E2,-9.512786E1,-1.328725E2,1.00611786E3,-3.347752E1,2.0776741E2,5.958012E2,-3.6863687E2,2.8807492E2,2.1461203E1,8.7465355E1,-3.528592E1,9.787707E-1,-1.2098736E2,1.7363081E1,-6.5831184E0,6.099345E1,4.188187E1,-3.311873E1,-9.646221E1,-1.399785E2,-8.075833E1,-4.14078E1,-9.488444E1,-3.262933E1,6.92915E1,-8.629161E1,4.3106213E1,5.667588E0,-1.023059E2,8.531949E1,5.3621783E0,-6.824886E1,-5.6362885E1,2.6061176E1,-1.4952865E1,-1.0373994E1,7.4874916E1,1.214891E2,3.2862843E1,-4.377795E1,2.9804138E1,-5.7842804E1,1.03483154E2,5.086729E1,4.5129997E1,-4.8741085E1,5.131095E1,3.7118993E0],"categories":[],"categories_nodes":[],"categories_segments":[],"categories_sizes":[],"default_left":[0,0,0,0,0,0,0,0,0,0,0,0,0,0,0,0,0,0,0,0,0,0,0,0,0,0,0,0,0,0,0,0,0,0,0,0,0,0,0,0,0,0,0,0,0,0,0,0,0,0,0,0,0,0,0,0,0,0,0,0,0,0,0,0,0,0,0,0,0,0,0,0,0,0,0,0,0,0,0,0,0,0,0,0,0,0,0,0,0],"id":2,"left_children":[1,3,5,7,9,11,13,15,17,19,21,23,25,-1,-1,27,29,31,33,-1,35,37,39,41,43,45,47,49,51,53,55,57,-1,59,61,63,65,67,69,71,73,-1,75,77,79,81,83,85,87,-1,-1,-1,-1,-1,-1,-1,-1,-1,-1,-1,-1,-1,-1,-1,-1,-1,-1,-1,-1,-1,-1,-1,-1,-1,-1,-1,-1,-1,-1,-1,-1,-1,-1,-1,-1,-1,-1,-1,-1],"loss_changes":[1.1272775E8,6.763463E7,6.3711744E7,7.471313E7,1.05862E8,4.699771E7,9.32932E5,5.048317E7,1.0744431E8,4.1739364E7,9.027133E7,5.080759E7,6.5457024E7,0E0,0E0,2.8044592E7,5.4760456E7,5.0060268E7,3.1015728E7,0E0,2.2844448E7,5.480933E7,8.856262E7,2.1917912E7,4.7986544E7,5.249648E7,1.4459075E8,1.9592504E7,2.2624972E6,1.072419E8,4.4014988E7,4.823719E7,0E0,1.20768E6,8.677512E6,2.9557904E7,4.2680772E7,5.0623864E7,6.802141E7,5.7012736E7,6.193341E7,0E0,1.2146375E4,1.776936E6,5.826472E7,5.3686024E7,2.4413888E7,4.6771028E7,6.3401E7,0E0,0E0,0E0,0E0,0E0,0E0,0E0,0E0,0E0,0E0,0E0,0E0,0E0,0E0,0E0,0E0,0E0,0E0,0E0,0E0,0E0,0E0,0E0,0E0,0E0,0E0,0E0,0E0,0E0,0E0,0E0,0E0,0E0,0E0,0E0,0E0,0E0,0E0,0E0,0E0],"parents":[2147483647,0,0,1,1,2,2,3,3,4,4,5,5,6,6,7,7,8,8,9,9,10,10,11,11,12,12,15,15,16,16,17,17,18,18,20,20,21,21,22,22,23,23,24,24,25,25,26,26,27,27,28,28,29,29,30,30,31,31,33,33,34,34,35,35,36,36,37,37,38,38,39,39,40,40,42,42,43,43,44,44,45,45,46,46,47,47,48,48],"right_children":[2,4,6,8,10,12,14,16,18,20,22,24,26,-1,-1,28,30,32,34,-1,36,38,40,42,44,46,48,50,52,54,56,58,-1,60,62,64,66,68,70,72,74,-1,76,78,80,82,84,86,88,-1,-1,-1,-1,-1,-1,-1,-1,-1,-1,-1,-1,-1,-1,-1,-1,-1,-1,-1,-1,-1,-1,-1,-1,-1,-1,-1,-1,-1,-1,-1,-1,-1,-1,-1,-1,-1,-1,-1,-1],"split_conditions":[1.1851182E0,9E0,1.1E1,1.0963155E0,-1.237509E0,-1.1738853E0,-1.0098526E-1,-1.7777914E0,-5.7862006E-2,-1.7820201E0,1E1,1.2999979E0,2.76945E-1,-8.31781E1,-1.2672019E2,1.5045707E0,-1.237509E0,7E0,2E0,9.049125E1,9.5888275E-1,6.311584E-1,-6.158737E-1,8.0823374E-1,1E0,-5.042713E-1,-5.5559474E-1,-1.7947061E0,-1.4648138E0,-1.39709E0,1.0709434E0,-1.0098526E-1,-1.1045359E2,1E0,3.5362425E-1,-1.4648138E0,-1.4648138E0,3.5362425E-1,-1.0102043E0,1.263195E-1,-1.4416096E0,-9.512786E1,2E0,1.0355386E0,1.0355386E0,1.4901481E0,1E0,1.2429105E0,6E0,2.1461203E1,8.7465355E1,-3.528592E1,9.787707E-1,-1.2098736E2,1.7363081E1,-6.5831184E0,6.099345E1,4.188187E1,-3.311873E1,-9.646221E1,-1.399785E2,-8.075833E1,-4.14078E1,-9.488444E1,-3.262933E1,6.92915E1,-8.629161E1,4.3106213E1,5.667588E0,-1.023059E2,8.531949E1,5.3621783E0,-6.824886E1,-5.6362885E1,2.6061176E1,-1.4952865E1,-1.0373994E1,7.4874916E1,1.214891E2,3.2862843E1,-4.377795E1,2.9804138E1,-5.7842804E1,1.03483154E2,5.086729E1,4.5129997E1,-4.8741085E1,5.131095E1,3.7118993E0],"split_indices":[4,0,0,4,2,3,2,4,3,4,0,4,3,0,0,3,2,0,0,0,4,4,3,2,0,3,2,4,2,3,4,2,0,0,2,2,2,2,2,2,4,0,0,2,2,2,0,4,0,0,0,0,0,0,0,0,0,0,0,0,0,0,0,0,0,0,0,0,0,0,0,0,0,0,0,0,0,0,0,0,0,0,0,0,0,0,0,0,0],"split_type":[0,0,0,0,0,0,0,0,0,0,0,0,0,0,0,0,0,0,0,0,0,0,0,0,0,0,0,0,0,0,0,0,0,0,0,0,0,0,0,0,0,0,0,0,0,0,0,0,0,0,0,0,0,0,0,0,0,0,0,0,0,0,0,0,0,0,0,0,0,0,0,0,0,0,0,0,0,0,0,0,0,0,0,0,0,0,0,0,0],"sum_hessian":[2.5261E4,2.1637E4,3.624E3,1.8181E4,3.456E3,3.583E3,4.1E1,1.7477E4,7.04E2,4.42E2,3.014E3,5.8E2,3.003E3,2.2E1,1.9E1,2.66E2,1.7211E4,3.87E2,3.17E2,2.4E1,4.18E2,1.731E3,1.283E3,1.35E2,4.45E2,1.404E3,1.599E3,1.87E2,7.9E1,1.711E3,1.55E4,3.5E2,3.7E1,8.5E1,2.32E2,3.46E2,7.2E1,1.445E3,2.86E2,4.4E2,8.43E2,7.9E1,5.6E1,4.9E1,3.96E2,7.53E2,6.51E2,4.77E2,1.122E3,7.7E1,1.1E2,2.4E1,5.5E1,5.7E1,1.654E3,1.5404E4,9.6E1,2.03E2,1.47E2,1.9E1,6.6E1,1.11E2,1.21E2,1.14E2,2.32E2,4.4E1,2.8E1,7.07E2,7.38E2,2E1,2.66E2,1.73E2,2.67E2,1.03E2,7.4E2,3.3E1,2.3E1,2.4E1,2.5E1,2.09E2,1.87E2,6.76E2,7.7E1,1.06E2,5.45E2,6E1,4.17E2,5.91E2,5.31E2],"tree_param":{"num_deleted":"0","num_feature":"5","num_nodes":"89","size_leaf_vector":"1"}},{"base_weights":[-2.372686E0,-2.8569426E1,1.5304233E2,-1.0955677E2,5.0919943E0,4.5596933E2,5.9754143E1,7.9709106E2,-1.3975073E2,-3.2714645E2,1.7531998E1,-1.5413762E2,5.1367896E2,8.894547E1,-6.3284174E2,1.1676824E2,3.885015E2,-9.1564415E1,-3.626995E2,1.3532896E2,-8.213069E2,1.8754141E2,-2.4863608E0,-2.3401855E1,-1.2083513E2,-2.8494058E2,5.626287E2,1.9547064E2,-3.8225258E1,-8.632037E1,3.3266456E0,2.3507236E2,9.82793E1,-5.4091705E2,-6.5427765E1,-2.1606186E2,-6.3288184E2,2.2135366E1,1.2664137E2,3.425159E1,-9.4828577E2,4.1844614E2,-5.5186428E1,-4.6249302E1,1.038884E2,-9.342742E0,-1.3501555E1,-4.7525818E1,-1.0606348E1,9.734231E1,4.8391867E2,7.751838E1,8.314521E2,-2.579038E2,1.09681816E2,3.540076E1,1.5663108E1,-9.5419914E1,1.3869357E1,-3.2127975E1,-1.1233816E0,-3.7514706E1,2.9941023E1,-4.2928055E1,-9.968252E1,8.2372185E1,-8.1613455E0,-1.06789604E2,-4.180272E1,8.790563E1,2.2625923E1,-5.7405468E1,8.350157E0,-6.1576873E-1,-3.3803555E1,-4.3643665E-1,3.3793518E1,4.5010174E1,1.1373633E2,2.7087818E1,-9.7432165E0,6.84094E1,1.17534096E2,7.923002E1,-3.9733814E1,4.889934E1,-9.8249235E0],"categories":[],"categories_nodes":[],"categories_segments":[],"categories_sizes":[],"default_left":[0,0,0,0,0,0,0,0,0,0,0,0,0,0,0,0,0,0,0,0,0,0,0,0,0,0,0,0,0,0,0,0,0,0,0,0,0,0,0,0,0,0,0,0,0,0,0,0,0,0,0,0,0,0,0,0,0,0,0,0,0,0,0,0,0,0,0,0,0,0,0,0,0,0,0,0,0,0,0,0,0,0,0,0,0,0,0],"id":3,"left_children":[1,3,5,7,9,11,13,15,17,19,21,23,25,27,29,-1,31,33,35,37,39,41,43,-1,45,47,49,51,53,-1,-1,55,-1,57,59,61,63,65,-1,-1,67,69,71,73,75,-1,-1,-1,-1,-1,77,79,81,83,85,-1,-1,-1,-1,-1,-1,-1,-1,-1,-1,-1,-1,-1,-1,-1,-1,-1,-1,-1,-1,-1,-1,-1,-1,-1,-1,-1,-1,-1,-1,-1,-1],"loss_changes":[1.0299367E8,5.9016224E7,1.0309171E8,1.7410874E8,6.3212436E7,3.032376E7,5.648417E7,3.05874E7,6.60582E7,1.2626362E8,5.0172052E7,1.7124E5,3.0847728E7,3.6299576E7,1.7368112E7,0E0,8.795952E6,5.939215E7,4.316672E7,3.6588988E7,3.9782304E7,8.70641E7,6.1407852E7,0E0,8.7616875E3,1.5155918E6,2.3455824E7,1.0930807E8,3.973353E7,0E0,0E0,6.909065E5,0E0,7.821445E7,6.6315696E7,5.8335144E7,2.8026224E7,2.1772938E7,0E0,0E0,1.4838864E7,7.026562E7,5.4594216E7,1.0932912E8,9.74192E7,0E0,0E0,0E0,0E0,0E0,1.3254816E7,4.166915E7,1.0749808E7,7.236058E7,5.7702492E7,0E0,0E0,0E0,0E0,0E0,0E0,0E0,0E0,0E0,0E0,0E0,0E0,0E0,0E0,0E0,0E0,0E0,0E0,0E0,0E0,0E0,0E0,0E0,0E0,0E0,0E0,0E0,0E0,0E0,0E0,0E0,0E0],"parents":[2147483647,0,0,1,1,2,2,3,3,4,4,5,5,6,6,7,7,8,8,9,9,10,10,11,11,12,12,13,13,14,14,16,16,17,17,18,18,19,19,20,20,21,21,22,22,24,24,25,25,26,26,27,27,28,28,31,31,33,33,34,34,35,35,36,36,37,37,40,40,41,41,42,42,43,43,44,44,50,50,51,51,52,52,53,53,54,54],"right_children":[2,4,6,8,10,12,14,16,18,20,22,24,26,28,30,-1,32,34,36,38,40,42,44,-1,46,48,50,52,54,-1,-1,56,-1,58,60,62,64,66,-1,-1,68,70,72,74,76,-1,-1,-1,-1,-1,78,80,82,84,86,-1,-1,-1,-1,-1,-1,-1,-1,-1,-1,-1,-1,-1,-1,-1,-1,-1,-1,-1,-1,-1,-1,-1,-1,-1,-1,-1,-1,-1,-1,-1,-1],"split_conditions":[1.1851182E0,5E0,3E0,-1.4648138E0,-1.4648138E0,-1.6202947E0,1.7174528E0,9.46559E-1,7.601338E-1,-4.485698E-1,-1.2854877E0,-7.828995E-1,-1.237509E0,1.2E1,1.6E1,1.1676824E2,1.0801055E0,-1.237509E0,2E0,1.8E1,6E0,-3.4849054E-1,4.4016212E-1,-2.3401855E1,1E0,1E0,-9.506807E-1,1E1,-5.042713E-1,-8.632037E1,3.3266456E0,2E0,9.82793E1,4E0,-1.062283E0,1.2628433E0,-1.0098526E-1,-1.7820201E0,1.2664137E2,3.425159E1,8.129926E-1,1E1,8E0,1.9912618E-1,1.6E1,-9.342742E0,-1.3501555E1,-4.7525818E1,-1.0606348E1,9.734231E1,1.7174528E0,1.6534266E-1,8.0823374E-1,-5.5559474E-1,3.8854733E-1,3.540076E1,1.5663108E1,-9.5419914E1,1.3869357E1,-3.2127975E1,-1.1233816E0,-3.7514706E1,2.9941023E1,-4.2928055E1,-9.968252E1,8.2372185E1,-8.1613455E0,-1.06789604E2,-4.180272E1,8.790563E1,2.2625923E1,-5.7405468E1,8.350157E0,-6.1576873E-1,-3.3803555E1,-4.3643665E-1,3.3793518E1,4.5010174E1,1.1373633E2,2.7087818E1,-9.7432165E0,6.84094E1,1.17534096E2,7.923002E1,-3.9733814E1,4.889934E1,-9.8249235E0],"split_indices":[4,1,1,2,2,3,2,3,4,4,3,2,2,1,1,0,4,2,1,1,1,4,4,0,1,1,3,1,3,0,0,1,0,1,3,2,2,4,0,0,4,1,1,4,1,0,0,0,0,0,2,3,2,2,3,0,0,0,0,0,0,0,0,0,0,0,0,0,0,0,0,0,0,0,0,0,0,0,0,0,0,0,0,0,0,0,0],"split_type":[0,0,0,0,0,0,0,0,0,0,0,0,0,0,0,0,0,0,0,0,0,0,0,0,0,0,0,0,0,0,0,0,0,0,0,0,0,0,0,0,0,0,0,0,0,0,0,0,0,0,0,0,0,0,0,0,0,0,0,0,0,0,0,0,0,0,0,0,0,0,0,0,0,0,0,0,0,0,0,0,0,0,0,0,0,0,0],"sum_hessian":[2.5295E4,2.1647E4,3.648E3,6.355E3,1.5292E4,8.58E2,2.79E3,2.04E2,6.151E3,5.51E2,1.4741E4,7.4E1,7.84E2,2.678E3,1.12E2,1.06E2,9.8E1,5.059E3,1.092E3,2.85E2,2.66E2,1.552E3,1.3189E4,2E1,5.4E1,4.5E1,7.39E2,1.457E3,1.221E3,8.3E1,2.9E1,7.9E1,1.9E1,2.77E2,4.782E3,7.09E2,3.83E2,2.6E2,2.5E1,2.6E1,2.4E2,7.95E2,7.57E2,9.345E3,3.844E3,2.1E1,3.3E1,2.1E1,2.4E1,1.17E2,6.22E2,1.23E3,2.27E2,4.91E2,7.3E2,3E1,4.9E1,1.72E2,1.05E2,8.35E2,3.947E3,5.42E2,1.67E2,2.47E2,1.36E2,2.9E1,2.31E2,1.95E2,4.5E1,2.33E2,5.62E2,1.59E2,5.98E2,8.217E3,1.128E3,2.629E3,1.215E3,5.93E2,2.9E1,5.84E2,6.46E2,1.61E2,6.6E1,5.7E1,4.34E2,2.58E2,4.72E2],"tree_param":{"num_deleted":"0","num_feature":"5","num_nodes":"87","size_leaf_vector":"1"}},{"base_weights":[2.4207134E0,-2.0363894E1,1.3956499E2,-1.005233E2,1.3128666E1,4.1229422E2,5.181135E1,7.2138086E2,-1.287658E2,-2.8638028E2,2.3901478E1,2.1133102E2,5.6976263E2,7.841577E1,-5.744585E2,1.4293562E2,8.99031E2,-9.0422844E1,-4.0179593E2,1.2194653E2,-7.54714E2,-2.0432087E-2,1.7216591E2,2.5713512E1,4.236171E2,8.876807E2,3.903234E2,9.583701E1,-9.6422577E2,-7.787389E1,3.0014951E0,1.1141303E1,1.6485014E1,1.039E2,3.203948E1,-4.3640723E2,-7.0232315E1,-4.9265054E2,3.244234E2,2.3317396E1,1.14281166E2,1.2197299E2,-9.559556E2,2.6225943E2,-2.29466E1,3.102236E2,-1.6090511E1,3.5081793E2,-2.0366922E2,6.7234625E2,2.9364966E2,5.3782936E1,9.646546E2,6.4622644E2,-1.1317247E2,2.1268098E2,-4.102243E1,-7.796031E1,-1.13756165E2,-8.80814E1,1.066973E1,1.934231E0,-1.6489723E1,-7.23995E1,-3.404216E1,-3.9842122E0,4.856225E1,7.432106E1,-6.6769753E0,3.0746244E1,-5.355621E0,-1.0021404E2,-6.3480938E1,1.70757E0,5.4576565E1,5.645063E1,-3.1162515E0,-1.751658E1,3.886691E1,-4.3652317E1,2.105542E1,1.11266174E2,-7.7181673E0,-1.0565848E1,-3.8127827E1,8.950845E1,3.7786594E1,-1.2709078E1,4.113767E1,8.440407E1,1.04167625E2,9.591973E1,6.0044003E1,4.813396E0,-9.699791E1,9.906944E0,7.6027336E1,4.2426705E0,-3.1059546E1],"categories":[],"categories_nodes":[],"categories_segments":[],"categories_sizes":[],"default_left":[0,0,0,0,0,0,0,0,0,0,0,0,0,0,0,0,0,0,0,0,0,0,0,0,0,0,0,0,0,0,0,0,0,0,0,0,0,0,0,0,0,0,0,0,0,0,0,0,0,0,0,0,0,0,0,0,0,0,0,0,0,0,0,0,0,0,0,0,0,0,0,0,0,0,0,0,0,0,0,0,0,0,0,0,0,0,0,0,0,0,0,0,0,0,0,0,0,0,0],"id":4,"left_children":[1,3,5,7,9,11,13,15,17,19,21,23,25,27,29,31,33,35,37,39,41,43,45,47,49,51,53,55,57,-1,-1,-1,-1,-1,-1,59,61,63,65,67,-1,69,71,73,75,77,79,81,83,85,87,-1,89,91,93,95,97,-1,-1,-1,-1,-1,-1,-1,-1,-1,-1,-1,-1,-1,-1,-1,-1,-1,-1,-1,-1,-1,-1,-1,-1,-1,-1,-1,-1,-1,-1,-1,-1,-1,-1,-1,-1,-1,-1,-1,-1,-1,-1],"loss_changes":[7.8850376E7,5.8096492E7,8.601773E7,1.4811974E8,4.925373E7,2.756928E7,4.538112E7,2.1656808E7,6.451417E7,1.01445624E8,5.225809E7,1.5199056E7,2.7606528E7,4.7518904E7,1.3729888E7,1.6864438E4,1.2787664E7,3.774751E7,5.023893E7,2.8568472E7,4.369381E7,7.629988E7,5.3207028E7,1.5508131E7,5.621372E6,4.220736E6,4.0659664E7,4.109012E7,4.89228E5,0E0,0E0,0E0,0E0,0E0,0E0,7.201906E7,4.3342296E7,2.3525216E7,5.010486E6,1.6911436E7,0E0,1.5467308E6,2.345072E6,7.089202E7,5.6337584E7,4.5036544E7,8.2707336E7,2.8127796E7,2.083441E6,3.662894E6,5.996186E6,0E0,4.49248E5,2.418992E6,1.483499E7,8.615163E7,2.664801E7,0E0,0E0,0E0,0E0,0E0,0E0,0E0,0E0,0E0,0E0,0E0,0E0,0E0,0E0,0E0,0E0,0E0,0E0,0E0,0E0,0E0,0E0,0E0,0E0,0E0,0E0,0E0,0E0,0E0,0E0,0E0,0E0,0E0,0E0,0E0,0E0,0E0,0E0,0E0,0E0,0E0,0E0],"parents":[2147483647,0,0,1,1,2,2,3,3,4,4,5,5,6,6,7,7,8,8,9,9,10,10,11,11,12,12,13,13,14,14,15,15,16,16,17,17,18,18,19,19,20,20,21,21,22,22,23,23,24,24,25,25,26,26,27,27,28,28,35,35,36,36,37,37,38,38,39,39,41,41,42,42,43,43,44,44,45,45,46,46,47,47,48,48,49,49,50,50,52,52,53,53,54,54,55,55,56,56],"right_children":[2,4,6,8,10,12,14,16,18,20,22,24,26,28,30,32,34,36,38,40,42,44,46,48,50,52,54,56,58,-1,-1,-1,-1,-1,-1,60,62,64,66,68,-1,70,72,74,76,78,80,82,84,86,88,-1,90,92,94,96,98,-1,-1,-1,-1,-1,-1,-1,-1,-1,-1,-1,-1,-1,-1,-1,-1,-1,-1,-1,-1,-1,-1,-1,-1,-1,-1,-1,-1,-1,-1,-1,-1,-1,-1,-1,-1,-1,-1,-1,-1,-1,-1],"split_conditions":[1.1851182E0,5E0,3E0,-1.4648138E0,-1.4648138E0,1.3895054E0,1.7174528E0,-1.427514E0,8.707848E-1,-4.485698E-1,9E0,5E0,1.479013E0,1E1,8E0,-1.6741881E0,1E1,-1.237509E0,1.2628433E0,1.8E1,1E0,-1.237509E0,5.80929E-1,1.2224717E0,-3.2829002E-1,-7.828995E-1,5E0,1.2E1,-1.0098526E-1,-7.787389E1,3.0014951E0,1.1141303E1,1.6485014E1,1.039E2,3.203948E1,4E0,-3.4426185E-1,-7.828995E-1,1.0004649E0,-1.7820201E0,1.14281166E2,6E0,1.8E1,1.3E1,-1.7777914E0,-1.237509E0,9E0,-7.828995E-1,1.2999979E0,1E1,-1.0098526E-1,5.3782936E1,1.0355386E0,-7.828995E-1,1.6425227E0,1E1,8.0823374E-1,-7.796031E1,-1.13756165E2,-8.80814E1,1.066973E1,1.934231E0,-1.6489723E1,-7.23995E1,-3.404216E1,-3.9842122E0,4.856225E1,7.432106E1,-6.6769753E0,3.0746244E1,-5.355621E0,-1.0021404E2,-6.3480938E1,1.70757E0,5.4576565E1,5.645063E1,-3.1162515E0,-1.751658E1,3.886691E1,-4.3652317E1,2.105542E1,1.11266174E2,-7.7181673E0,-1.0565848E1,-3.8127827E1,8.950845E1,3.7786594E1,-1.2709078E1,4.113767E1,8.440407E1,1.04167625E2,9.591973E1,6.0044003E1,4.813396E0,-9.699791E1,9.906944E0,7.6027336E1,4.2426705E0,-3.1059546E1],"split_indices":[4,1,1,2,2,4,2,4,4,4,0,0,4,0,0,4,0,2,2,1,0,2,2,4,2,2,0,1,2,0,0,0,0,0,0,1,4,2,4,4,0,1,1,1,4,2,1,2,4,0,2,0,2,2,4,1,2,0,0,0,0,0,0,0,0,0,0,0,0,0,0,0,0,0,0,0,0,0,0,0,0,0,0,0,0,0,0,0,0,0,0,0,0,0,0,0,0,0,0],"split_type":[0,0,0,0,0,0,0,0,0,0,0,0,0,0,0,0,0,0,0,0,0,0,0,0,0,0,0,0,0,0,0,0,0,0,0,0,0,0,0,0,0,0,0,0,0,0,0,0,0,0,0,0,0,0,0,0,0,0,0,0,0,0,0,0,0,0,0,0,0,0,0,0,0,0,0,0,0,0,0,0,0,0,0,0,0,0,0,0,0,0,0,0,0,0,0,0,0,0,0],"sum_hessian":[2.5232E4,2.1638E4,3.594E3,6.376E3,1.5262E4,8.74E2,2.72E3,2.11E2,6.165E3,5.29E2,1.4733E4,3.85E2,4.89E2,2.61E3,1.1E2,5E1,1.61E2,5.407E3,7.58E2,2.83E2,2.46E2,1.2687E4,2.046E3,2.06E2,1.79E2,1.75E2,3.14E2,2.568E3,4.2E1,8.2E1,2.8E1,2.3E1,2.7E1,1.29E2,3.2E1,2.97E2,5.11E3,6.74E2,8.4E1,2.59E2,2.4E1,4.6E1,2E2,1.019E3,1.1668E4,1.18E3,8.66E2,8.5E1,1.21E2,6E1,1.19E2,3.3E1,1.42E2,2.08E2,1.06E2,1.385E3,1.183E3,2.3E1,1.9E1,1.63E2,1.34E2,2.626E3,2.484E3,2.66E2,4.08E2,2.6E1,5.8E1,2.8E1,2.31E2,2.2E1,2.4E1,1.73E2,2.7E1,5.47E2,4.72E2,1.6E2,1.1508E4,1.64E2,1.016E3,3.03E2,5.63E2,3E1,5.5E1,7.9E1,4.2E1,3.3E1,2.7E1,2.6E1,9.3E1,6E1,8.2E1,2.4E1,1.84E2,9E1,1.6E1,1.148E3,2.37E2,9.04E2,2.79E2],"tree_param":{"num_deleted":"0","num_feature":"5","num_nodes":"99","size_leaf_vector":"1"}},{"base_weights":[9.375502E-1,-2.0162695E1,1.2612016E2,-1.3027763E1,-3.3104022E2,1.3674855E2,-8.902515E2,3.6472012E2,-1.8553308E1,7.8288727E2,-4.574451E2,-5.0092014E1,1.7445563E2,-6.96826E1,-1.0294932E2,5.2363214E2,-9.075173E1,-3.7300957E1,8.157805E1,5.9317474E1,9.351921E1,-5.264456E2,1.1818145E2,-5.586006E2,9.8688225E1,2.9161105E2,7.3059395E1,1.8790279E2,6.98122E2,-3.0073013E1,-2.4939766E1,1.1112733E2,-5.363479E1,-2.7202704E2,1.2743041E2,-3.2077048E2,-7.3552277E2,-8.619061E2,-9.908336E1,9.354839E2,-1.620611E1,1.3489864E2,4.8354364E2,-3.0807263E2,2.2997148E2,4.1303573E0,4.6871223E1,8.077448E1,2.7207153E1,-1.5540799E0,-3.3837419E0,-1.0289357E2,1.5368688E1,-1.9442926E1,-3.7947774E0,-3.8862026E1,5.2112366E1,3.2766174E1,-2.1296747E0,-5.9562874E1,-1.7424366E1,-1.1390964E1,-9.41997E1,-9.849209E1,-7.564486E1,-1.1175271E1,-7.4423785E0,7.4712975E1,1.06935745E2,2.7463434E1,-3.7038834E1,-2.4574703E1,2.9919462E1,8.7600624E1,4.066656E1,-6.274522E1,-5.188336E0,4.24485E1,-1.172006E0],"categories":[],"categories_nodes":[],"categories_segments":[],"categories_sizes":[],"default_left":[0,0,0,0,0,0,0,0,0,0,0,0,0,0,0,0,0,0,0,0,0,0,0,0,0,0,0,0,0,0,0,0,0,0,0,0,0,0,0,0,0,0,0,0,0,0,0,0,0,0,0,0,0,0,0,0,0,0,0,0,0,0,0,0,0,0,0,0,0,0,0,0,0,0,0,0,0,0,0],"id":5,"left_children":[1,3,5,7,9,11,13,15,17,19,21,23,25,-1,-1,27,29,31,33,-1,-1,35,-1,37,39,41,43,45,47,-1,49,51,53,55,57,59,61,63,65,67,69,71,73,75,77,-1,-1,-1,-1,-1,-1,-1,-1,-1,-1,-1,-1,-1,-1,-1,-1,-1,-1,-1,-1,-1,-1,-1,-1,-1,-1,-1,-1,-1,-1,-1,-1,-1,-1],"loss_changes":[6.700389E7,4.8145984E7,3.9647676E7,4.4302664E7,6.8930584E7,2.5526504E7,3.06074E5,2.2195784E7,3.926901E7,8.89974E5,5.0164264E7,4.6129644E7,3.578236E7,0E0,0E0,1.3166796E7,1.0980271E6,4.2721508E7,5.3523424E7,0E0,0E0,1.7867896E7,0E0,1.9148232E7,4.5394692E7,4.198413E7,9.677427E7,3.232789E6,6.739264E6,0E0,4.659121E3,8.492356E7,3.5050452E7,3.525093E7,8.699389E7,8.51487E6,2.658888E7,3.31704E5,9.1785625E3,6.38348E5,4.29541E7,4.8290748E7,1.8591632E7,3.858725E7,5.388104E7,0E0,0E0,0E0,0E0,0E0,0E0,0E0,0E0,0E0,0E0,0E0,0E0,0E0,0E0,0E0,0E0,0E0,0E0,0E0,0E0,0E0,0E0,0E0,0E0,0E0,0E0,0E0,0E0,0E0,0E0,0E0,0E0,0E0,0E0],"parents":[2147483647,0,0,1,1,2,2,3,3,4,4,5,5,6,6,7,7,8,8,9,9,10,10,11,11,12,12,15,15,16,16,17,17,18,18,21,21,23,23,24,24,25,25,26,26,27,27,28,28,30,30,31,31,32,32,33,33,34,34,35,35,36,36,37,37,38,38,39,39,40,40,41,41,42,42,43,43,44,44],"right_children":[2,4,6,8,10,12,14,16,18,20,22,24,26,-1,-1,28,30,32,34,-1,-1,36,-1,38,40,42,44,46,48,-1,50,52,54,56,58,60,62,64,66,68,70,72,74,76,78,-1,-1,-1,-1,-1,-1,-1,-1,-1,-1,-1,-1,-1,-1,-1,-1,-1,-1,-1,-1,-1,-1,-1,-1,-1,-1,-1,-1,-1,-1,-1,-1,-1,-1],"split_conditions":[1.1851182E0,1.1484694E0,1.1E1,-1.7777914E0,-1.5086924E0,-1.1738853E0,-1.0098526E-1,1.5045707E0,9E0,4E0,1.1E1,1.2999979E0,2.76945E-1,-6.96826E1,-1.0294932E2,-1.7947061E0,-1.4648138E0,-1.237509E0,-1.237509E0,5.9317474E1,9.351921E1,1.1632699E0,1.1818145E2,8.0823374E-1,1E0,-5.042713E-1,-5.5559474E-1,5.0014967E-1,1.0581614E0,-3.0073013E1,1E0,-1.39709E0,-1.3781792E0,9.5888275E-1,1.263195E-1,5E0,1E0,1E0,2E0,1.0355386E0,1.0355386E0,4E0,1E0,5E0,6E0,4.1303573E0,4.6871223E1,8.077448E1,2.7207153E1,-1.5540799E0,-3.3837419E0,-1.0289357E2,1.5368688E1,-1.9442926E1,-3.7947774E0,-3.8862026E1,5.2112366E1,3.2766174E1,-2.1296747E0,-5.9562874E1,-1.7424366E1,-1.1390964E1,-9.41997E1,-9.849209E1,-7.564486E1,-1.1175271E1,-7.4423785E0,7.4712975E1,1.06935745E2,2.7463434E1,-3.7038834E1,-2.4574703E1,2.9919462E1,8.7600624E1,4.066656E1,-6.274522E1,-5.188336E0,4.24485E1,-1.172006E0],"split_indices":[4,4,0,4,3,3,2,3,0,0,0,4,3,0,0,4,2,2,2,0,0,4,0,2,0,3,2,3,3,0,0,3,4,4,2,0,0,0,0,2,2,0,0,0,0,0,0,0,0,0,0,0,0,0,0,0,0,0,0,0,0,0,0,0,0,0,0,0,0,0,0,0,0,0,0,0,0,0,0],"split_type":[0,0,0,0,0,0,0,0,0,0,0,0,0,0,0,0,0,0,0,0,0,0,0,0,0,0,0,0,0,0,0,0,0,0,0,0,0,0,0,0,0,0,0,0,0,0,0,0,0,0,0,0,0,0,0,0,0,0,0,0,0,0,0,0,0,0,0,0,0,0,0,0,0,0,0,0,0,0,0],"sum_hessian":[2.5365E4,2.1707E4,3.658E3,2.1221E4,4.86E2,3.621E3,3.7E1,3.05E2,2.0916E4,4.9E1,4.37E2,6.08E2,3.013E3,1.8E1,1.9E1,2.26E2,7.9E1,1.7618E4,3.298E3,2.4E1,2.5E1,4.2E2,1.7E1,1.37E2,4.71E2,1.397E3,1.616E3,7.8E1,1.48E2,1.8E1,6.1E1,1.746E3,1.5872E4,3.78E2,2.92E3,2.13E2,2.07E2,8.2E1,5.5E1,5.6E1,4.15E2,7.7E2,6.27E2,4.71E2,1.145E3,5.2E1,2.6E1,1.17E2,3.1E1,3.1E1,3E1,6.2E1,1.684E3,1.59E3,1.4282E4,3.3E2,4.8E1,1.244E3,1.676E3,7.3E1,1.4E2,5.2E1,1.55E2,3.4E1,4.8E1,3.4E1,2.1E1,2.6E1,3E1,2.28E2,1.87E2,2.32E2,5.38E2,1.01E2,5.26E2,2.09E2,2.62E2,6.34E2,5.11E2],"tree_param":{"num_deleted":"0","num_feature":"5","num_nodes":"79","size_leaf_vector":"1"}},{"base_weights":[2.6257798E-1,-1.3772053E1,1.400393E2,-8.691432E1,1.7201502E1,2.5010527E2,-1.9447449E2,6.40898E2,-1.0955203E2,1.9708818E2,3.435358E0,3.82487E2,1.3626422E2,-4.436854E1,-4.265022E2,1.11213196E2,8.110466E2,-4.297766E2,-8.8116844E1,2.8240497E2,-3.76673E2,-3.967304E2,1.56125145E1,-4.575257E2,4.3812622E2,1.8140654E2,-5.9856792E1,-1.4264445E2,9.9555916E1,-1.1959762E2,-9.3293243E2,8.64231E0,1.3353797E1,9.196603E1,2.3678402E1,-6.578259E2,7.1729355E1,-2.6466568E0,-2.0225926E2,3.4705658E2,5.7612213E1,-1.03418144E2,-4.0793293E1,4.4642526E2,-5.0597195E2,-1.5410707E2,4.3328938E1,-5.220161E1,-3.721547E1,6.354959E2,2.88264E2,-2.0386015E2,2.9866586E2,-7.168314E1,-9.686052E1,6.741851E1,-2.9802155E2,-7.955824E1,-1.1420928E2,-1.0927715E2,-5.131561E1,-3.1718363E1,5.5998657E1,-1.0754192E1,1.0569031E1,-1.3311768E1,-5.08225E1,6.165713E0,5.3473522E1,5.807217E1,-5.047795E1,1.0729794E1,-1.007067E1,2.6473377E1,6.1094654E1,-3.425515E1,-8.019097E1,-7.9900017E0,-4.9812344E1,5.852854E1,2.512043E0,2.6585203E1,8.131307E1,4.9453777E1,-4.5544133E0,-5.8677765E1,3.107285E0,4.7892086E1,6.6682634E0,-6.5508385E1,3.681732E0,-6.3601093E1,-1.0216243E1],"categories":[],"categories_nodes":[],"categories_segments":[],"categories_sizes":[],"default_left":[0,0,0,0,0,0,0,0,0,0,0,0,0,0,0,0,0,0,0,0,0,0,0,0,0,0,0,0,0,0,0,0,0,0,0,0,0,0,0,0,0,0,0,0,0,0,0,0,0,0,0,0,0,0,0,0,0,0,0,0,0,0,0,0,0,0,0,0,0,0,0,0,0,0,0,0,0,0,0,0,0,0,0,0,0,0,0,0,0,0,0,0,0],"id":6,"left_children":[1,3,5,7,9,11,13,15,17,19,21,23,25,27,29,31,33,35,37,39,41,43,45,47,49,51,-1,53,-1,55,57,-1,-1,-1,-1,59,61,63,65,67,69,-1,71,73,75,77,79,-1,-1,81,83,85,87,89,-1,-1,91,-1,-1,-1,-1,-1,-1,-1,-1,-1,-1,-1,-1,-1,-1,-1,-1,-1,-1,-1,-1,-1,-1,-1,-1,-1,-1,-1,-1,-1,-1,-1,-1,-1,-1,-1,-1],"loss_changes":[4.9276276E7,5.1715516E7,8.443683E7,1.1195877E8,3.971248E7,2.5944448E7,1.97638E7,1.8385448E7,4.5175784E7,5.5911036E7,7.2602376E7,3.7450384E7,3.0925402E7,3.5503156E7,3.4548372E7,1.6684312E4,9.450016E6,4.72812E7,6.0241376E7,1.4411488E7,3.2642682E7,4.075324E7,6.8022104E7,8.101E4,2.1941344E7,3.9635156E7,0E0,1.851033E7,0E0,2.0029098E7,1.504536E6,0E0,0E0,0E0,0E0,1.7309512E7,2.4863264E7,4.0149136E7,5.586605E7,4.1264384E7,6.589805E7,0E0,8.8919806E5,1.362759E6,1.85866E7,5.1782944E7,1.2264726E8,0E0,0E0,2.0926872E7,2.9423976E7,1.8460022E7,2.8068504E7,1.85708E7,0E0,0E0,7.547827E6,0E0,0E0,0E0,0E0,0E0,0E0,0E0,0E0,0E0,0E0,0E0,0E0,0E0,0E0,0E0,0E0,0E0,0E0,0E0,0E0,0E0,0E0,0E0,0E0,0E0,0E0,0E0,0E0,0E0,0E0,0E0,0E0,0E0,0E0,0E0,0E0],"parents":[2147483647,0,0,1,1,2,2,3,3,4,4,5,5,6,6,7,7,8,8,9,9,10,10,11,11,12,12,13,13,14,14,15,15,16,16,17,17,18,18,19,19,20,20,21,21,22,22,23,23,24,24,25,25,27,27,29,29,30,30,35,35,36,36,37,37,38,38,39,39,40,40,42,42,43,43,44,44,45,45,46,46,49,49,50,50,51,51,52,52,53,53,56,56],"right_children":[2,4,6,8,10,12,14,16,18,20,22,24,26,28,30,32,34,36,38,40,42,44,46,48,50,52,-1,54,-1,56,58,-1,-1,-1,-1,60,62,64,66,68,70,-1,72,74,76,78,80,-1,-1,82,84,86,88,90,-1,-1,92,-1,-1,-1,-1,-1,-1,-1,-1,-1,-1,-1,-1,-1,-1,-1,-1,-1,-1,-1,-1,-1,-1,-1,-1,-1,-1,-1,-1,-1,-1,-1,-1,-1,-1,-1,-1],"split_conditions":[1.3782289E0,5E0,1.4E1,-1.4648138E0,-1.5762233E0,5E0,8.0823374E-1,-1.427514E0,-1.237509E0,1.4901481E0,-1.4648138E0,-1.237509E0,1.2628433E0,5.80929E-1,1.5572438E0,-1.6741881E0,1E1,4E0,2E0,8.0823374E-1,4E0,6E0,-1.0913323E0,1E0,1.4895847E0,8E0,-5.9856792E1,3.5362425E-1,9.9555916E1,1.0355386E0,4E0,8.64231E0,1.3353797E1,9.196603E1,2.3678402E1,1E0,4.923161E-1,4E0,7.601338E-1,1.1E1,4E0,-1.03418144E2,-1.7453713E0,1E0,1.6E1,-1.1491245E0,-1.0166253E0,-5.220161E1,-3.721547E1,1.3965533E0,5E0,1.533986E0,1.6227888E0,1.4317924E0,-9.686052E1,6.741851E1,1.6E1,-7.955824E1,-1.1420928E2,-1.0927715E2,-5.131561E1,-3.1718363E1,5.5998657E1,-1.0754192E1,1.0569031E1,-1.3311768E1,-5.08225E1,6.165713E0,5.3473522E1,5.807217E1,-5.047795E1,1.0729794E1,-1.007067E1,2.6473377E1,6.1094654E1,-3.425515E1,-8.019097E1,-7.9900017E0,-4.9812344E1,5.852854E1,2.512043E0,2.6585203E1,8.131307E1,4.9453777E1,-4.5544133E0,-5.8677765E1,3.107285E0,4.7892086E1,6.6682634E0,-6.5508385E1,3.681732E0,-6.3601093E1,-1.0216243E1],"split_indices":[4,1,1,2,4,1,2,4,2,2,2,2,2,2,4,4,0,1,1,2,0,1,4,0,4,1,0,2,0,2,0,0,0,0,0,1,4,0,4,1,0,0,4,0,1,4,4,0,0,4,0,4,4,4,0,0,1,0,0,0,0,0,0,0,0,0,0,0,0,0,0,0,0,0,0,0,0,0,0,0,0,0,0,0,0,0,0,0,0,0,0,0,0],"split_type":[0,0,0,0,0,0,0,0,0,0,0,0,0,0,0,0,0,0,0,0,0,0,0,0,0,0,0,0,0,0,0,0,0,0,0,0,0,0,0,0,0,0,0,0,0,0,0,0,0,0,0,0,0,0,0,0,0,0,0,0,0,0,0,0,0,0,0,0,0,0,0,0,0,0,0,0,0,0,0,0,0,0,0,0,0,0,0,0,0,0,0,0,0],"sum_hessian":[2.5117E4,2.2826E4,2.291E3,6.79E3,1.6036E4,1.724E3,5.67E2,2.04E2,6.586E3,1.139E3,1.4897E4,7.96E2,9.28E2,3.45E2,2.22E2,5E1,1.54E2,4.12E2,6.174E3,9.92E2,1.47E2,4.39E2,1.4458E4,4.9E1,7.47E2,8.75E2,5.3E1,3.16E2,2.9E1,1.39E2,8.3E1,2.6E1,2.4E1,1.29E2,2.5E1,2.83E2,1.29E2,3.531E3,2.643E3,7.7E2,2.22E2,4.9E1,9.8E1,5E1,3.89E2,2.029E3,1.2429E4,2.5E1,2.4E1,3.21E2,4.26E2,2.04E2,6.71E2,2.92E2,2.4E1,2.5E1,1.14E2,5.3E1,3E1,6.9E1,2.14E2,7.2E1,5.7E1,1.794E3,1.737E3,2.157E3,4.86E2,3.06E2,4.64E2,1.15E2,1.07E2,2.8E1,7E1,2.5E1,2.5E1,2.52E2,1.37E2,1.67E3,3.59E2,4.03E2,1.2026E4,1.05E2,2.16E2,2.63E2,1.63E2,7.7E1,1.27E2,3.77E2,2.94E2,4.5E1,2.47E2,4.1E1,7.3E1],"tree_param":{"num_deleted":"0","num_feature":"5","num_nodes":"93","size_leaf_vector":"1"}},{"base_weights":[1.1179657E0,-1.4680906E1,9.636832E1,-6.1693096E0,-2.2378557E2,1.0758932E2,-8.108978E2,3.105171E2,-1.072265E1,3.0061905E2,-3.6178235E2,-7.210423E1,1.4286191E2,-6.3855587E1,-9.404903E1,4.5772946E2,-1.197098E2,-3.415952E1,5.2780457E1,4.799211E2,-9.2079124E1,-4.0527316E2,1.0741076E2,-4.8569705E2,4.765904E1,2.6056317E2,4.034878E1,1.5555435E2,6.3966364E2,-2.8076797E1,-4.8894108E1,-1.0454505E1,-2.5112721E2,-2.0963197E2,1.00541695E2,5.500225E2,-2.0764434E0,-5.639555E2,-2.2159433E1,-7.5339294E1,-7.751454E1,7.4209485E2,-3.6476795E1,1.1010356E2,4.4452325E2,-2.7839444E2,1.8213684E2,1.4573705E0,4.369952E1,7.297637E1,2.9398148E1,-1.996535E0,-8.165286E0,-2.241079E0,4.0842598E1,2.1970264E1,-3.4227356E1,-5.9304676E0,-6.660324E1,1.7756712E1,1.3483164E0,6.3842632E1,3.137765E1,-2.4995632E1,-8.078856E1,4.5773933E1,-6.446214E1,-9.010655E0,-5.717249E0,6.1110065E1,8.7508316E1,2.1705477E1,-3.1334387E1,-2.2920963E1,2.5477268E1,7.739946E1,3.7828033E1,4.1826885E1,-3.7680485E1,3.550454E1,-2.8788347E0],"categories":[],"categories_nodes":[],"categories_segments":[],"categories_sizes":[],"default_left":[0,0,0,0,0,0,0,0,0,0,0,0,0,0,0,0,0,0,0,0,0,0,0,0,0,0,0,0,0,0,0,0,0,0,0,0,0,0,0,0,0,0,0,0,0,0,0,0,0,0,0,0,0,0,0,0,0,0,0,0,0,0,0,0,0,0,0,0,0,0,0,0,0,0,0,0,0,0,0,0,0],"id":7,"left_children":[1,3,5,7,9,11,13,15,17,19,21,23,25,-1,-1,27,29,31,33,35,-1,37,-1,39,41,43,45,47,49,-1,51,53,55,57,59,61,-1,63,65,-1,67,69,71,73,75,77,79,-1,-1,-1,-1,-1,-1,-1,-1,-1,-1,-1,-1,-1,-1,-1,-1,-1,-1,-1,-1,-1,-1,-1,-1,-1,-1,-1,-1,-1,-1,-1,-1,-1,-1],"loss_changes":[3.7994316E7,3.8542284E7,3.665537E7,3.001095E7,6.140289E7,2.2504772E7,3.82148E5,1.8738534E7,3.0536054E7,3.920515E7,4.2337936E7,2.890102E7,3.578909E7,0E0,0E0,1.1995216E7,8.53086E5,7.70737E7,6.934189E7,5.451728E6,0E0,3.9624776E7,0E0,1.4255812E7,2.6494472E7,3.8175144E7,7.177356E7,3.3265585E6,4.052456E6,0E0,4.9543945E4,6.767568E7,6.341689E7,5.841575E7,3.1380368E7,2.640044E6,0E0,3.510784E7,5.7649064E7,0E0,8.4241875E3,3.1885E5,2.8496804E7,3.7414468E7,1.3260616E7,3.3682916E7,4.009159E7,0E0,0E0,0E0,0E0,0E0,0E0,0E0,0E0,0E0,0E0,0E0,0E0,0E0,0E0,0E0,0E0,0E0,0E0,0E0,0E0,0E0,0E0,0E0,0E0,0E0,0E0,0E0,0E0,0E0,0E0,0E0,0E0,0E0,0E0],"parents":[2147483647,0,0,1,1,2,2,3,3,4,4,5,5,6,6,7,7,8,8,9,9,10,10,11,11,12,12,15,15,16,16,17,17,18,18,19,19,21,21,23,23,24,24,25,25,26,26,27,27,28,28,30,30,31,31,32,32,33,33,34,34,35,35,37,37,38,38,40,40,41,41,42,42,43,43,44,44,45,45,46,46],"right_children":[2,4,6,8,10,12,14,16,18,20,22,24,26,-1,-1,28,30,32,34,36,-1,38,-1,40,42,44,46,48,50,-1,52,54,56,58,60,62,-1,64,66,-1,68,70,72,74,76,78,80,-1,-1,-1,-1,-1,-1,-1,-1,-1,-1,-1,-1,-1,-1,-1,-1,-1,-1,-1,-1,-1,-1,-1,-1,-1,-1,-1,-1,-1,-1,-1,-1,-1,-1],"split_conditions":[1.1851182E0,1.0963155E0,1.1E1,-1.7777914E0,-9.506807E-1,-1.1738853E0,-1.0098526E-1,1.5045707E0,4.1408515E-1,1.1787752E0,1.1E1,1.2999979E0,2.76945E-1,-6.3855587E1,-9.404903E1,-1.7947061E0,-1.4648138E0,1.9912618E-1,-1.062283E0,3.5362425E-1,-9.2079124E1,5.80929E-1,1.0741076E2,8.0823374E-1,1E0,-5.042713E-1,-5.5559474E-1,5.0014967E-1,1.0581614E0,-2.8076797E1,1E0,1.5895353E-1,-1.2854877E0,9.511301E-1,7.840964E-1,6E0,-2.0764434E0,-5.7862006E-2,1.0581614E0,-7.5339294E1,2E0,1.0355386E0,1.0355386E0,4E0,1E0,1.2429105E0,6E0,1.4573705E0,4.369952E1,7.297637E1,2.9398148E1,-1.996535E0,-8.165286E0,-2.241079E0,4.0842598E1,2.1970264E1,-3.4227356E1,-5.9304676E0,-6.660324E1,1.7756712E1,1.3483164E0,6.3842632E1,3.137765E1,-2.4995632E1,-8.078856E1,4.5773933E1,-6.446214E1,-9.010655E0,-5.717249E0,6.1110065E1,8.7508316E1,2.1705477E1,-3.1334387E1,-2.2920963E1,2.5477268E1,7.739946E1,3.7828033E1,4.1826885E1,-3.7680485E1,3.550454E1,-2.8788347E0],"split_indices":[4,4,0,4,3,3,2,3,4,4,0,4,3,0,0,4,2,4,3,2,0,2,0,2,0,3,2,3,3,0,0,4,3,4,4,0,0,3,3,0,0,2,2,0,0,4,0,0,0,0,0,0,0,0,0,0,0,0,0,0,0,0,0,0,0,0,0,0,0,0,0,0,0,0,0,0,0,0,0,0,0],"split_type":[0,0,0,0,0,0,0,0,0,0,0,0,0,0,0,0,0,0,0,0,0,0,0,0,0,0,0,0,0,0,0,0,0,0,0,0,0,0,0,0,0,0,0,0,0,0,0,0,0,0,0,0,0,0,0,0,0,0,0,0,0,0,0,0,0,0,0,0,0,0,0,0,0,0,0,0,0,0,0,0,0],"sum_hessian":[2.5246E4,2.1655E4,3.591E3,2.0809E4,8.46E2,3.548E3,4.3E1,2.94E2,2.0515E4,1.76E2,6.7E2,5.82E2,2.966E3,2.1E1,2.2E1,2.19E2,7.5E1,1.4985E4,5.53E3,1.54E2,2.2E1,6.51E2,1.9E1,1.3E2,4.52E2,1.38E3,1.586E3,8.3E1,1.36E2,2.2E1,5.3E1,1.351E4,1.475E3,8.51E2,4.679E3,1.35E2,1.9E1,4.6E2,1.91E2,7.8E1,5.2E1,4.8E1,4.04E2,7.6E2,6.2E2,4.88E2,1.098E3,5.6E1,2.7E1,1.07E2,2.9E1,2.9E1,2.4E1,1.3136E4,3.74E2,2.39E2,1.236E3,6.41E2,2.1E2,2.482E3,2.197E3,9.7E1,3.8E1,2.02E2,2.58E2,1.08E2,8.3E1,3E1,2.2E1,2.7E1,2.1E1,2.11E2,1.93E2,2.27E2,5.33E2,1.02E2,5.18E2,6E1,4.28E2,6.03E2,4.95E2],"tree_param":{"num_deleted":"0","num_feature":"5","num_nodes":"81","size_leaf_vector":"1"}},{"base_weights":[1.9815797E-1,-1.5078028E1,9.1927315E1,-3.5202614E1,9.1598976E1,3.165944E2,2.1562538E1,-2.8237524E1,-3.7635696E2,1.941302E2,-5.9057316E1,1.7012486E2,4.3026398E2,4.2302814E1,-4.8997406E2,-1.0681875E2,2.8810291E0,-2.493243E1,-5.73832E2,1.3157484E2,5.048761E2,8.330975E1,-2.1823653E2,2.0153637E1,3.4685303E2,7.315378E2,2.642957E2,5.445758E1,-7.28926E2,-6.742126E1,-1.6543639E0,6.208089E2,-1.313237E2,-3.6184563E1,1.05939064E2,2.938887E2,-8.8328575E1,-9.171821E1,-4.7012265E2,2.3272783E2,-7.901741E1,-1.3914514E2,6.956822E2,-5.124978E2,1.9693755E2,-4.4206873E2,3.995687E1,2.731699E2,-1.6134262E2,4.7268082E2,1.7212831E2,4.4650337E1,7.866046E2,4.6818018E2,-1.10955246E2,1.4854514E2,-5.7858253E1,-5.7629303E1,-8.468484E1,1.0489356E1,8.378344E1,-8.410753E0,-4.2537643E1,-2.4237692E-1,-2.7465296E1,3.701989E0,2.7758366E1,6.337321E1,-3.5446033E1,-3.405168E1,-8.0287964E1,6.240264E0,3.9428665E1,-4.5779766E1,2.1479228E0,8.949596E1,-8.6225815E1,8.655305E1,3.0126532E1,2.130351E1,-7.198553E1,-4.0344463E1,3.0271437E1,-5.164271E1,9.663827E1,1.8752516E1,-2.5701818E1,9.3838585E1,-8.173625E0,-8.452674E0,-3.1286123E1,7.381853E1,3.308923E1,5.2043777E0,3.9182117E1,6.6986145E1,8.506304E1,5.8409008E1,3.7256554E1,1.9609193E0,-8.340533E1,6.4115825E0,5.9207577E1,4.6215202E1,-9.291038E0],"categories":[],"categories_nodes":[],"categories_segments":[],"categories_sizes":[],"default_left":[0,0,0,0,0,0,0,0,0,0,0,0,0,0,0,0,0,0,0,0,0,0,0,0,0,0,0,0,0,0,0,0,0,0,0,0,0,0,0,0,0,0,0,0,0,0,0,0,0,0,0,0,0,0,0,0,0,0,0,0,0,0,0,0,0,0,0,0,0,0,0,0,0,0,0,0,0,0,0,0,0,0,0,0,0,0,0,0,0,0,0,0,0,0,0,0,0,0,0,0,0,0,0,0,0],"id":8,"left_children":[1,3,5,7,9,11,13,15,17,19,21,23,25,27,29,31,33,35,37,39,41,43,45,47,49,51,53,55,57,-1,-1,59,61,63,65,67,-1,-1,69,71,73,75,77,79,81,83,85,87,89,91,93,-1,95,97,99,101,103,-1,-1,-1,-1,-1,-1,-1,-1,-1,-1,-1,-1,-1,-1,-1,-1,-1,-1,-1,-1,-1,-1,-1,-1,-1,-1,-1,-1,-1,-1,-1,-1,-1,-1,-1,-1,-1,-1,-1,-1,-1,-1,-1,-1,-1,-1,-1,-1],"loss_changes":[3.5355468E7,4.6437016E7,5.6935924E7,4.3228536E7,5.3040924E7,1.42284E7,2.9132952E7,4.361039E7,2.5246404E7,3.964709E7,3.1540852E7,9.98507E6,2.3957584E7,2.4768586E7,9.321828E6,9.0285944E7,5.1440308E7,3.638286E7,7.865624E6,3.6274456E7,4.212285E7,4.986065E7,3.798701E7,9.457982E6,3.722082E6,2.332792E6,2.3998904E7,2.7463018E7,2.4992E5,0E0,0E0,1.8386636E7,6.792662E7,7.459076E7,4.1535292E7,2.1597336E7,0E0,0E0,7.532636E6,3.1620568E7,2.1060408E7,5.984587E7,1.742488E7,1.7905826E7,3.936915E7,3.736409E7,1.3458371E7,2.0380374E7,1.37024E6,3.520288E6,1.9318552E6,0E0,4.91592E5,2.032172E6,1.0495963E7,5.2912064E7,2.1642484E7,0E0,0E0,0E0,0E0,0E0,0E0,0E0,0E0,0E0,0E0,0E0,0E0,0E0,0E0,0E0,0E0,0E0,0E0,0E0,0E0,0E0,0E0,0E0,0E0,0E0,0E0,0E0,0E0,0E0,0E0,0E0,0E0,0E0,0E0,0E0,0E0,0E0,0E0,0E0,0E0,0E0,0E0,0E0,0E0,0E0,0E0,0E0,0E0],"parents":[2147483647,0,0,1,1,2,2,3,3,4,4,5,5,6,6,7,7,8,8,9,9,10,10,11,11,12,12,13,13,14,14,15,15,16,16,17,17,18,18,19,19,20,20,21,21,22,22,23,23,24,24,25,25,26,26,27,27,28,28,31,31,32,32,33,33,34,34,35,35,38,38,39,39,40,40,41,41,42,42,43,43,44,44,45,45,46,46,47,47,48,48,49,49,50,50,52,52,53,53,54,54,55,55,56,56],"right_children":[2,4,6,8,10,12,14,16,18,20,22,24,26,28,30,32,34,36,38,40,42,44,46,48,50,52,54,56,58,-1,-1,60,62,64,66,68,-1,-1,70,72,74,76,78,80,82,84,86,88,90,92,94,-1,96,98,100,102,104,-1,-1,-1,-1,-1,-1,-1,-1,-1,-1,-1,-1,-1,-1,-1,-1,-1,-1,-1,-1,-1,-1,-1,-1,-1,-1,-1,-1,-1,-1,-1,-1,-1,-1,-1,-1,-1,-1,-1,-1,-1,-1,-1,-1,-1,-1,-1,-1],"split_conditions":[1.1851182E0,9E0,3E0,1.1484694E0,1E1,1.3895054E0,1.7174528E0,5E0,-3.2829002E-1,6.311584E-1,1.263195E-1,5E0,1.479013E0,1E1,8E0,-1.4648138E0,4.4016212E-1,7E0,2E0,-4.6196067E-1,-1.0102043E0,-1.237509E0,1.0355386E0,1.2224717E0,1E1,-7.828995E-1,5E0,1.2E1,-1.0098526E-1,-6.742126E1,-1.6543639E0,-1.427514E0,7.601338E-1,1.9912618E-1,1.6E1,1.6E1,-8.8328575E1,-9.171821E1,1E1,-1.0941514E0,-3.2382312E-1,2E0,1.0476855E0,-1.4648138E0,-1.4416096E0,1.1787752E0,1.1E1,-7.828995E-1,1.2999979E0,-3.2829002E-1,-1.0098526E-1,4.4650337E1,1.0355386E0,1.6608471E0,1.6425227E0,1E1,1.2407961E0,-5.7629303E1,-8.468484E1,1.0489356E1,8.378344E1,-8.410753E0,-4.2537643E1,-2.4237692E-1,-2.7465296E1,3.701989E0,2.7758366E1,6.337321E1,-3.5446033E1,-3.405168E1,-8.0287964E1,6.240264E0,3.9428665E1,-4.5779766E1,2.1479228E0,8.949596E1,-8.6225815E1,8.655305E1,3.0126532E1,2.130351E1,-7.198553E1,-4.0344463E1,3.0271437E1,-5.164271E1,9.663827E1,1.8752516E1,-2.5701818E1,9.3838585E1,-8.173625E0,-8.452674E0,-3.1286123E1,7.381853E1,3.308923E1,5.2043777E0,3.9182117E1,6.6986145E1,8.506304E1,5.8409008E1,3.7256554E1,1.9609193E0,-8.340533E1,6.4115825E0,5.9207577E1,4.6215202E1,-9.291038E0],"split_indices":[4,0,1,4,0,4,2,1,2,4,2,0,4,0,0,2,4,0,1,4,2,2,2,4,0,2,0,1,2,0,0,4,4,4,1,1,0,0,1,4,4,1,4,2,4,4,0,2,4,2,2,0,2,4,4,1,4,0,0,0,0,0,0,0,0,0,0,0,0,0,0,0,0,0,0,0,0,0,0,0,0,0,0,0,0,0,0,0,0,0,0,0,0,0,0,0,0,0,0,0,0,0,0,0,0],"split_type":[0,0,0,0,0,0,0,0,0,0,0,0,0,0,0,0,0,0,0,0,0,0,0,0,0,0,0,0,0,0,0,0,0,0,0,0,0,0,0,0,0,0,0,0,0,0,0,0,0,0,0,0,0,0,0,0,0,0,0,0,0,0,0,0,0,0,0,0,0,0,0,0,0,0,0,0,0,0,0,0,0,0,0,0,0,0,0,0,0,0,0,0,0,0,0,0,0,0,0,0,0,0,0,0,0],"sum_hessian":[2.5229E4,2.1628E4,3.601E3,1.8196E4,3.432E3,8.58E2,2.743E3,1.7833E4,3.63E2,2.042E3,1.39E3,3.76E2,4.82E2,2.637E3,1.06E2,5.058E3,1.2775E4,1.31E2,2.32E2,1.701E3,3.41E2,7.34E2,6.56E2,2.04E2,1.72E2,1.7E2,3.12E2,2.597E3,4E1,7.6E1,3E1,1.64E2,4.894E3,9.264E3,3.511E3,9.6E1,3.5E1,5.2E1,1.8E2,1.149E3,5.52E2,7.8E1,2.63E2,1.17E2,6.17E2,3.51E2,3.05E2,8.5E1,1.19E2,9.9E1,7.3E1,2.9E1,1.41E2,2.02E2,1.1E2,1.413E3,1.184E3,2E1,2E1,4.9E1,1.15E2,4.218E3,6.76E2,8.116E3,1.148E3,2.506E3,1.005E3,6.3E1,3.3E1,1.31E2,4.9E1,5.6E2,5.89E2,1.15E2,4.37E2,3.2E1,4.6E1,1.83E2,8E1,2.6E1,9.1E1,9.2E1,5.25E2,3.34E2,1.7E1,2.04E2,1.01E2,2.9E1,5.6E1,8E1,3.9E1,3.3E1,6.6E1,4.8E1,2.5E1,5.4E1,8.7E1,8.9E1,1.13E2,9.4E1,1.6E1,1.188E3,2.25E2,7.4E1,1.11E3],"tree_param":{"num_deleted":"0","num_feature":"5","num_nodes":"105","size_leaf_vector":"1"}},{"base_weights":[1.6784241E0,-1.1716305E1,7.162091E1,-1.9641129E1,9.160867E1,1.4963147E2,-4.5294785E1,-4.2767822E1,3.6939754E1,3.7603098E2,-3.726425E1,-1.4005157E1,2.1309421E2,-3.4954358E2,8.213569E1,-1.8617157E1,-3.2733456E2,1.0422405E2,-6.130312E1,2.0142142E2,7.162961E2,1.7444385E2,-3.967963E2,-2.3267789E2,5.3176495E1,5.4871136E2,1.0710901E2,-1.0432246E3,-2.439046E2,5.5327168E1,6.931109E2,-6.487155E1,4.9044865E1,-2.760244E2,-8.221359E2,6.8868805E1,4.8119043E2,9.031674E1,-1.8010262E2,1.3793546E1,7.641282E2,8.359129E2,1.9542965E1,3.9439648E2,-3.8766945E1,-6.1248425E2,-5.849513E1,5.689686E1,-3.5126285E2,2.126343E2,-1.0166815E2,7.001125E2,3.880319E2,4.329781E2,6.225233E1,-8.8191734E1,-1.19126526E2,3.9955515E2,-5.2707336E2,2.0364682E2,-5.1698483E1,8.049471E1,5.580237E1,-3.319125E0,-1.5925132E1,2.9310117E0,6.612476E1,-4.4794712E1,7.123364E-1,-1.1043633E2,4.5311913E0,9.422855E0,-3.4234173E1,3.5883896E1,8.271468E1,2.4509758E1,-3.7438E1,-4.9528416E1,-1.7159106E0,-2.6815924E1,3.5358902E1,5.853849E1,8.525167E1,5.623338E1,8.930897E1,5.734007E1,-2.4649733E1,2.0533062E1,-4.073748E1,-2.1441076E1,-1.01900444E2,-5.2246773E1,3.3298645E0,-8.794208E0,-6.81119E1,-5.516391E0,3.4069416E1,-3.4705563E1,7.7455635E0,5.14547E1,7.938522E1,-2.5270748E0,7.089156E1,6.123247E1,-2.812248E1,4.677116E1,2.8094246E0,8.849026E1,2.6716364E1,-6.791676E1,9.301336E0,2.5825056E1,-6.480338E1,-8.292968E0,5.8401806E1],"categories":[],"categories_nodes":[],"categories_segments":[],"categories_sizes":[],"default_left":[0,0,0,0,0,0,0,0,0,0,0,0,0,0,0,0,0,0,0,0,0,0,0,0,0,0,0,0,0,0,0,0,0,0,0,0,0,0,0,0,0,0,0,0,0,0,0,0,0,0,0,0,0,0,0,0,0,0,0,0,0,0,0,0,0,0,0,0,0,0,0,0,0,0,0,0,0,0,0,0,0,0,0,0,0,0,0,0,0,0,0,0,0,0,0,0,0,0,0,0,0,0,0,0,0,0,0,0,0,0,0,0,0,0,0],"id":9,"left_children":[1,3,5,7,9,11,13,15,17,19,21,23,25,27,29,31,33,35,37,39,41,43,45,47,49,51,53,55,57,59,61,63,65,67,69,71,73,75,77,79,81,83,-1,85,87,89,91,-1,93,95,97,99,101,103,105,-1,-1,107,109,111,113,-1,-1,-1,-1,-1,-1,-1,-1,-1,-1,-1,-1,-1,-1,-1,-1,-1,-1,-1,-1,-1,-1,-1,-1,-1,-1,-1,-1,-1,-1,-1,-1,-1,-1,-1,-1,-1,-1,-1,-1,-1,-1,-1,-1,-1,-1,-1,-1,-1,-1,-1,-1,-1,-1],"loss_changes":[2.3612538E7,1.7322558E7,3.695456E7,2.5710244E7,5.5252096E7,2.523812E7,6.2914572E7,9.584433E7,3.769115E7,2.7780092E7,7.907746E7,1.0002113E7,6.222507E7,3.484655E7,1.8699618E7,4.0241296E7,2.747176E7,4.506792E7,4.176892E7,3.2930252E7,9.74304E6,3.0685452E7,2.805666E7,1.5409975E7,1.2885726E7,9.945712E6,1.9443432E7,4.5384E5,7.61912E7,1.7424314E7,2.75988E5,2.2829188E7,6.3059012E7,4.819593E7,2.5021424E7,3.2307522E7,1.1978384E7,7.3384504E7,6.675532E7,2.2609292E7,7.33264E5,1.51564E6,0E0,3.7082052E7,3.0045746E7,3.781037E7,6.4484565E6,0E0,1.2100214E7,8.832403E6,1.1674886E7,3.331416E6,2.733806E7,2.079467E7,1.6218722E7,0E0,0E0,7.988338E6,2.7413544E7,2.1559624E7,1.2715404E7,0E0,0E0,0E0,0E0,0E0,0E0,0E0,0E0,0E0,0E0,0E0,0E0,0E0,0E0,0E0,0E0,0E0,0E0,0E0,0E0,0E0,0E0,0E0,0E0,0E0,0E0,0E0,0E0,0E0,0E0,0E0,0E0,0E0,0E0,0E0,0E0,0E0,0E0,0E0,0E0,0E0,0E0,0E0,0E0,0E0,0E0,0E0,0E0,0E0,0E0,0E0,0E0,0E0,0E0],"parents":[2147483647,0,0,1,1,2,2,3,3,4,4,5,5,6,6,7,7,8,8,9,9,10,10,11,11,12,12,13,13,14,14,15,15,16,16,17,17,18,18,19,19,20,20,21,21,22,22,23,23,24,24,25,25,26,26,27,27,28,28,29,29,30,30,31,31,32,32,33,33,34,34,35,35,36,36,37,37,38,38,39,39,40,40,41,41,43,43,44,44,45,45,46,46,48,48,49,49,50,50,51,51,52,52,53,53,54,54,57,57,58,58,59,59,60,60],"right_children":[2,4,6,8,10,12,14,16,18,20,22,24,26,28,30,32,34,36,38,40,42,44,46,48,50,52,54,56,58,60,62,64,66,68,70,72,74,76,78,80,82,84,-1,86,88,90,92,-1,94,96,98,100,102,104,106,-1,-1,108,110,112,114,-1,-1,-1,-1,-1,-1,-1,-1,-1,-1,-1,-1,-1,-1,-1,-1,-1,-1,-1,-1,-1,-1,-1,-1,-1,-1,-1,-1,-1,-1,-1,-1,-1,-1,-1,-1,-1,-1,-1,-1,-1,-1,-1,-1,-1,-1,-1,-1,-1,-1,-1,-1,-1,-1],"split_conditions":[9E0,1.5045707E0,1E1,8.0823374E-1,3E0,-7.828995E-1,-6.158737E-1,1.281366E0,1.1E1,8.0823374E-1,5.80929E-1,-1.4648138E0,1.263195E-1,-1.0102043E0,1.616173E0,1.1E1,1.6E1,1.1697637E0,-1.6946433E-1,1E0,1.6E1,1.616173E0,6E0,2E0,-1.0102043E0,-3.2829002E-1,2E0,-1.237509E0,-1.0098526E-1,6.11752E-1,1.1E1,1.263195E-1,1.1697637E0,1.1E1,4E0,1.0581614E0,7E0,5E0,5.0014967E-1,1.616173E0,-1.0102043E0,1.0355386E0,1.9542965E1,8E0,-1.0098526E-1,1.616173E0,2E0,5.689686E1,-1.6946433E-1,-9.506807E-1,9E0,-5.5559474E-1,-2.810667E-1,1.1697637E0,-1.39709E0,-8.8191734E1,-1.19126526E2,-1.6202947E0,1.4901481E0,1.4901481E0,1.2628433E0,8.049471E1,5.580237E1,-3.319125E0,-1.5925132E1,2.9310117E0,6.612476E1,-4.4794712E1,7.123364E-1,-1.1043633E2,4.5311913E0,9.422855E0,-3.4234173E1,3.5883896E1,8.271468E1,2.4509758E1,-3.7438E1,-4.9528416E1,-1.7159106E0,-2.6815924E1,3.5358902E1,5.853849E1,8.525167E1,5.623338E1,8.930897E1,5.734007E1,-2.4649733E1,2.0533062E1,-4.073748E1,-2.1441076E1,-1.01900444E2,-5.2246773E1,3.3298645E0,-8.794208E0,-6.81119E1,-5.516391E0,3.4069416E1,-3.4705563E1,7.7455635E0,5.14547E1,7.938522E1,-2.5270748E0,7.089156E1,6.123247E1,-2.812248E1,4.677116E1,2.8094246E0,8.849026E1,2.6716364E1,-6.791676E1,9.301336E0,2.5825056E1,-6.480338E1,-8.292968E0,5.8401806E1],"split_indices":[0,3,0,2,0,2,3,3,1,2,2,2,2,2,3,1,1,3,3,0,1,3,0,1,2,2,1,2,2,3,0,2,3,1,0,3,1,0,3,3,2,2,0,0,2,3,1,0,3,3,1,2,3,3,3,0,0,3,2,2,2,0,0,0,0,0,0,0,0,0,0,0,0,0,0,0,0,0,0,0,0,0,0,0,0,0,0,0,0,0,0,0,0,0,0,0,0,0,0,0,0,0,0,0,0,0,0,0,0,0,0,0,0,0,0],"split_type":[0,0,0,0,0,0,0,0,0,0,0,0,0,0,0,0,0,0,0,0,0,0,0,0,0,0,0,0,0,0,0,0,0,0,0,0,0,0,0,0,0,0,0,0,0,0,0,0,0,0,0,0,0,0,0,0,0,0,0,0,0,0,0,0,0,0,0,0,0,0,0,0,0,0,0,0,0,0,0,0,0,0,0,0,0,0,0,0,0,0,0,0,0,0,0,0,0,0,0,0,0,0,0,0,0,0,0,0,0,0,0,0,0,0,0],"sum_hessian":[2.5202E4,2.1152E4,4.05E3,1.9646E4,1.506E3,2.429E3,1.621E3,1.3946E4,5.7E3,4.69E2,1.037E3,6.79E2,1.75E3,4.78E2,1.143E3,1.2856E4,1.09E3,3.383E3,2.317E3,3.11E2,1.58E2,6.53E2,3.84E2,1.59E2,5.2E2,4.19E2,1.331E3,6.2E1,4.16E2,1.096E3,4.7E1,7.636E3,5.22E3,9.89E2,1.01E2,3.094E3,2.89E2,1.018E3,1.299E3,2.34E2,7.7E1,1.28E2,3E1,3.21E2,3.32E2,2.34E2,1.5E2,2E1,1.39E2,2.56E2,2.64E2,2.14E2,2.05E2,1.6E2,1.171E3,3.3E1,2.9E1,1.27E2,2.89E2,4.59E2,6.37E2,2.3E1,2.4E1,5.718E3,1.918E3,5.058E3,1.62E2,6.15E2,3.74E2,7.6E1,2.5E1,2.915E3,1.79E2,2.15E2,7.4E1,7.64E2,2.54E2,4.42E2,8.57E2,1.28E2,1.06E2,2.8E1,4.9E1,2.4E1,1.04E2,2.51E2,7E1,2E2,1.32E2,1.19E2,1.15E2,2.4E1,1.26E2,7.8E1,6.1E1,8.3E1,1.73E2,1.11E2,1.53E2,7.4E1,1.4E2,9E1,1.15E2,1.28E2,3.2E1,9E1,1.081E3,2.6E1,1.01E2,2.32E2,5.7E1,4.32E2,2.7E1,6.08E2,2.9E1],"tree_param":{"num_deleted":"0","num_feature":"5","num_nodes":"115","size_leaf_vector":"1"}},{"base_weights":[-3.1172638E0,-1.6642925E1,7.816959E1,-7.526902E1,7.906953E0,2.6999216E2,1.7276138E1,4.9990652E2,-9.382892E1,-2.3675597E2,1.6664036E1,-1.306837E2,3.0768924E2,3.8184917E1,-4.40578E2,7.5967735E1,2.0165538E2,-8.64875E0,-1.6245969E2,7.318802E1,-5.9674524E2,1.8830092E2,1.6332785E0,-2.5863127E1,-7.269357E1,6.546319E1,2.506035E2,1.2146697E2,-6.4700455E1,-6.0263405E1,-1.7713355E0,1.1580968E2,5.1349403E1,-6.506237E2,3.1772482E1,-5.571822E2,-1.1659864E2,-9.405868E0,9.649056E1,1.8403076E1,-6.792083E2,-1.1665424E2,3.6242648E2,1.7861522E2,-1.9833036E1,-5.2272964E0,-8.256765E0,-1.8257562E2,2.8232086E2,-1.1739804E1,3.6074466E2,-3.2199762E2,1.1075524E2,2.0050648E1,6.677655E0,-4.891169E1,-8.246558E1,1.6550932E1,-1.0941939E1,-8.0454834E1,-4.711645E0,-4.730987E0,-2.3977766E1,-1.8167976E1,2.9171911E1,-8.1287926E1,-4.9808266E1,-3.9136013E1,2.291367E1,-1.2342765E1,4.2617496E1,4.3657784E1,6.4362514E-1,9.113671E0,-5.2498565E0,-2.7897089E1,-1.0083945E1,3.6136723E1,7.2928643E0,1.6452108E1,-2.6885319E1,9.2025986E1,3.0258768E1,3.752129E1,-4.261361E1,8.704159E1,3.3530138E0],"categories":[],"categories_nodes":[],"categories_segments":[],"categories_sizes":[],"default_left":[0,0,0,0,0,0,0,0,0,0,0,0,0,0,0,0,0,0,0,0,0,0,0,0,0,0,0,0,0,0,0,0,0,0,0,0,0,0,0,0,0,0,0,0,0,0,0,0,0,0,0,0,0,0,0,0,0,0,0,0,0,0,0,0,0,0,0,0,0,0,0,0,0,0,0,0,0,0,0,0,0,0,0,0,0,0,0],"id":10,"left_children":[1,3,5,7,9,11,13,15,17,19,21,23,25,27,29,-1,31,33,35,37,39,41,43,-1,45,-1,47,49,51,-1,-1,53,-1,55,57,59,61,63,-1,-1,65,67,69,71,73,-1,-1,75,77,79,81,83,85,-1,-1,-1,-1,-1,-1,-1,-1,-1,-1,-1,-1,-1,-1,-1,-1,-1,-1,-1,-1,-1,-1,-1,-1,-1,-1,-1,-1,-1,-1,-1,-1,-1,-1],"loss_changes":[2.7637292E7,3.1018162E7,4.1882464E7,6.7951864E7,3.255117E7,1.3090336E7,2.6084568E7,1.5264716E7,3.602737E7,5.8621344E7,3.783809E7,5.376764E5,1.548228E7,2.2328816E7,8.144132E6,0E0,2.456913E6,7.140753E7,6.171849E7,2.0852144E7,1.57706E7,6.275395E7,5.1242684E7,0E0,6.3705938E3,0E0,9.394268E6,4.5901944E7,5.2673864E7,0E0,0E0,2.9808206E5,0E0,4.178144E6,4.8905044E7,4.4753504E7,2.6096984E7,1.3540753E7,0E0,0E0,4.921584E6,4.093572E7,2.3343888E7,6.4799748E7,4.360853E7,0E0,0E0,3.421805E5,1.046742E7,4.2009656E7,1.6479496E7,3.4502732E7,4.068424E7,0E0,0E0,0E0,0E0,0E0,0E0,0E0,0E0,0E0,0E0,0E0,0E0,0E0,0E0,0E0,0E0,0E0,0E0,0E0,0E0,0E0,0E0,0E0,0E0,0E0,0E0,0E0,0E0,0E0,0E0,0E0,0E0,0E0,0E0],"parents":[2147483647,0,0,1,1,2,2,3,3,4,4,5,5,6,6,7,7,8,8,9,9,10,10,11,11,12,12,13,13,14,14,16,16,17,17,18,18,19,19,20,20,21,21,22,22,24,24,26,26,27,27,28,28,31,31,33,33,34,34,35,35,36,36,37,37,40,40,41,41,42,42,43,43,44,44,47,47,48,48,49,49,50,50,51,51,52,52],"right_children":[2,4,6,8,10,12,14,16,18,20,22,24,26,28,30,-1,32,34,36,38,40,42,44,-1,46,-1,48,50,52,-1,-1,54,-1,56,58,60,62,64,-1,-1,66,68,70,72,74,-1,-1,76,78,80,82,84,86,-1,-1,-1,-1,-1,-1,-1,-1,-1,-1,-1,-1,-1,-1,-1,-1,-1,-1,-1,-1,-1,-1,-1,-1,-1,-1,-1,-1,-1,-1,-1,-1,-1,-1],"split_conditions":[1.1851182E0,5E0,3E0,-1.4648138E0,-1.4648138E0,-1.6202947E0,1.7174528E0,9.46559E-1,-3.4426185E-1,-4.485698E-1,-1.237509E0,-7.828995E-1,-9.506807E-1,3.8854733E-1,1.6E1,7.5967735E1,1.0801055E0,-1.237509E0,-2.4488738E-1,1.8E1,6E0,-7.27476E-1,-1.2854877E0,-2.5863127E1,1E0,6.546319E1,-1.237509E0,-5.042713E-1,-3.2829002E-1,-6.0263405E1,-1.7713355E0,2E0,5.1349403E1,-1.6946433E-1,1.6534266E-1,1.6534266E-1,7.601338E-1,9.46559E-1,9.649056E1,1.8403076E1,-6.2348466E-2,1.4E1,-1.0913323E0,-7.304832E-1,9E0,-5.2272964E0,-8.256765E0,1E0,8.3495665E-1,1.3E1,4E0,1.2429105E0,-1.0098526E-1,2.0050648E1,6.677655E0,-4.891169E1,-8.246558E1,1.6550932E1,-1.0941939E1,-8.0454834E1,-4.711645E0,-4.730987E0,-2.3977766E1,-1.8167976E1,2.9171911E1,-8.1287926E1,-4.9808266E1,-3.9136013E1,2.291367E1,-1.2342765E1,4.2617496E1,4.3657784E1,6.4362514E-1,9.113671E0,-5.2498565E0,-2.7897089E1,-1.0083945E1,3.6136723E1,7.2928643E0,1.6452108E1,-2.6885319E1,9.2025986E1,3.0258768E1,3.752129E1,-4.261361E1,8.704159E1,3.3530138E0],"split_indices":[4,1,1,2,2,3,2,3,4,4,2,2,3,3,1,0,4,2,4,1,1,3,3,0,1,0,2,3,2,0,0,1,0,3,3,3,4,3,0,0,4,1,4,4,1,0,0,1,3,1,1,4,2,0,0,0,0,0,0,0,0,0,0,0,0,0,0,0,0,0,0,0,0,0,0,0,0,0,0,0,0,0,0,0,0,0,0],"split_type":[0,0,0,0,0,0,0,0,0,0,0,0,0,0,0,0,0,0,0,0,0,0,0,0,0,0,0,0,0,0,0,0,0,0,0,0,0,0,0,0,0,0,0,0,0,0,0,0,0,0,0,0,0,0,0,0,0,0,0,0,0,0,0,0,0,0,0,0,0,0,0,0,0,0,0,0,0,0,0,0,0,0,0,0,0,0,0],"sum_hessian":[2.5135E4,2.155E4,3.585E3,6.36E3,1.519E4,8.63E2,2.722E3,1.98E2,6.162E3,5.24E2,1.4666E4,7.4E1,7.89E2,2.604E3,1.18E2,1.05E2,9.3E1,2.75E3,3.412E3,2.82E2,2.42E2,1.18E3,1.3486E4,2.2E1,5.2E1,1.1E2,6.79E2,1.439E3,1.165E3,8.5E1,3.3E1,7.4E1,1.9E1,1.62E2,2.588E3,3.54E2,3.058E3,2.59E2,2.3E1,2.3E1,2.19E2,4.29E2,7.51E2,1.458E3,1.2028E4,1.9E1,3.3E1,4.6E1,6.33E2,9.25E2,5.14E2,4.72E2,6.93E2,2.6E1,4.8E1,8.6E1,7.6E1,1.329E3,1.259E3,2.38E2,1.16E2,1.958E3,1.1E3,1.65E2,9.4E1,1.24E2,9.5E1,2.39E2,1.9E2,8.7E1,6.64E2,5.83E2,8.75E2,2.735E3,9.293E3,2E1,2.6E1,4.59E2,1.74E2,5.49E2,3.76E2,4.7E1,4.67E2,6.1E1,4.11E2,6.3E1,6.3E2],"tree_param":{"num_deleted":"0","num_feature":"5","num_nodes":"87","size_leaf_vector":"1"}},{"base_weights":[-8.7192595E-1,-2.794303E1,4.0434723E1,1.6283535E1,-1.1661008E2,-1.6449627E1,1.1618635E2,-2.05965E1,1.5842601E2,-3.8631345E2,-3.356185E1,-7.930587E1,1.6439156E2,2.7817035E2,4.251754E1,4.2537365E0,-4.915871E2,7.4420074E2,1.0223157E2,-2.965415E2,-6.757308E2,7.4903465E1,-2.1416414E2,7.710193E1,-1.5214139E2,2.7052005E2,3.17637E1,1.15897644E2,8.208219E2,-7.360245E2,8.2198135E1,-3.4883935E0,6.110795E2,-9.0600024E2,-1.3765121E2,8.4533105E2,1.5779349E1,5.8808674E1,6.786936E2,-4.1261575E2,-2.116407E1,-1.0382146E3,-4.621827E2,-1.6747443E2,1.3361554E2,-8.810865E1,-4.3513367E2,3.8280754E1,5.785477E2,-4.1175797E1,-3.4357852E2,-3.412608E2,3.128278E2,-1.5907098E2,1.8079909E2,2.092033E2,-3.2034085E2,8.914456E2,8.779191E0,-9.4759375E2,8.542056E0,1.2912025E2,-9.8370605E1,1.1865567E1,-3.3740342E0,4.4931213E1,9.0629265E1,-6.3501667E1,-1.1452944E2,1.320748E1,-7.887431E1,4.751925E1,1.0170619E2,-5.556164E1,9.403043E0,3.933952E1,1.1757137E2,-2.2755442E0,-4.9379356E1,9.482033E0,-9.883041E1,-1.365548E2,2.2903778E1,-7.080419E1,-1.3049672E1,-3.731573E1,3.7333588E1,9.104777E0,7.5063065E1,-4.6823165E-1,-4.7946255E1,-7.44611E1,-2.197872E1,8.206662E0,-5.5868763E1,9.0444984E1,2.0464441E1,6.1303097E1,-5.926334E0,-6.2775593E1,-1.2797832E1,-3.997103E1,-2.5397974E1,4.7758614E1,1.8662796E1,-3.594354E1,1.2588216E0,3.6068474E1,-7.4833865E0,-1.6597204E1,2.7827045E1,-6.1960804E1,4.5464622E1,3.711638E1,9.719417E1,-7.888421E1,-1.4013454E2,9.097644E0,3.814765E1,1.0884648E1,-6.052773E1],"categories":[],"categories_nodes":[],"categories_segments":[],"categories_sizes":[],"default_left":[0,0,0,0,0,0,0,0,0,0,0,0,0,0,0,0,0,0,0,0,0,0,0,0,0,0,0,0,0,0,0,0,0,0,0,0,0,0,0,0,0,0,0,0,0,0,0,0,0,0,0,0,0,0,0,0,0,0,0,0,0,0,0,0,0,0,0,0,0,0,0,0,0,0,0,0,0,0,0,0,0,0,0,0,0,0,0,0,0,0,0,0,0,0,0,0,0,0,0,0,0,0,0,0,0,0,0,0,0,0,0,0,0,0,0,0,0,0,0,0,0],"id":11,"left_children":[1,3,5,7,9,11,13,15,17,19,21,23,25,27,29,31,33,35,37,39,41,43,45,47,49,51,53,55,57,59,61,63,65,67,69,71,-1,73,75,77,79,81,83,85,87,89,91,93,95,97,99,101,103,105,107,109,111,113,-1,115,-1,117,119,-1,-1,-1,-1,-1,-1,-1,-1,-1,-1,-1,-1,-1,-1,-1,-1,-1,-1,-1,-1,-1,-1,-1,-1,-1,-1,-1,-1,-1,-1,-1,-1,-1,-1,-1,-1,-1,-1,-1,-1,-1,-1,-1,-1,-1,-1,-1,-1,-1,-1,-1,-1,-1,-1,-1,-1,-1,-1],"loss_changes":[2.8021402E7,5.9364636E7,4.275231E7,5.295492E7,1.1283013E8,6.4429812E7,5.0763804E7,9.388171E7,6.8424776E7,3.0613728E7,7.549278E7,4.7926664E7,2.0569928E7,1.170214E8,9.045345E7,3.5801836E7,5.883891E7,1.0659864E7,4.7520224E7,2.8982824E7,2.1194304E7,3.428944E7,4.023915E7,2.6004854E7,6.095308E7,2.1123792E7,1.8543928E7,4.178812E7,1.5763152E7,2.475948E7,2.3609088E7,2.78096E7,4.177352E6,1.1269008E7,3.838855E7,9.369144E6,0E0,3.8313764E7,1.8396756E7,2.0180192E7,3.0380462E7,4.30386E7,1.4423156E7,5.2419964E7,5.085941E7,3.0100334E7,3.482489E7,3.251021E7,1.1513076E7,2.1548712E7,6.44356E7,1.68863E5,1.5713152E7,9.841321E6,1.685739E7,2.1942072E7,4.226071E7,1.132392E7,0E0,7.034384E6,0E0,2.1248012E7,6.046373E7,0E0,0E0,0E0,0E0,0E0,0E0,0E0,0E0,0E0,0E0,0E0,0E0,0E0,0E0,0E0,0E0,0E0,0E0,0E0,0E0,0E0,0E0,0E0,0E0,0E0,0E0,0E0,0E0,0E0,0E0,0E0,0E0,0E0,0E0,0E0,0E0,0E0,0E0,0E0,0E0,0E0,0E0,0E0,0E0,0E0,0E0,0E0,0E0,0E0,0E0,0E0,0E0,0E0,0E0,0E0,0E0,0E0,0E0],"parents":[2147483647,0,0,1,1,2,2,3,3,4,4,5,5,6,6,7,7,8,8,9,9,10,10,11,11,12,12,13,13,14,14,15,15,16,16,17,17,18,18,19,19,20,20,21,21,22,22,23,23,24,24,25,25,26,26,27,27,28,28,29,29,30,30,31,31,32,32,33,33,34,34,35,35,37,37,38,38,39,39,40,40,41,41,42,42,43,43,44,44,45,45,46,46,47,47,48,48,49,49,50,50,51,51,52,52,53,53,54,54,55,55,56,56,57,57,59,59,61,61,62,62],"right_children":[2,4,6,8,10,12,14,16,18,20,22,24,26,28,30,32,34,36,38,40,42,44,46,48,50,52,54,56,58,60,62,64,66,68,70,72,-1,74,76,78,80,82,84,86,88,90,92,94,96,98,100,102,104,106,108,110,112,114,-1,116,-1,118,120,-1,-1,-1,-1,-1,-1,-1,-1,-1,-1,-1,-1,-1,-1,-1,-1,-1,-1,-1,-1,-1,-1,-1,-1,-1,-1,-1,-1,-1,-1,-1,-1,-1,-1,-1,-1,-1,-1,-1,-1,-1,-1,-1,-1,-1,-1,-1,-1,-1,-1,-1,-1,-1,-1,-1,-1,-1,-1],"split_conditions":[4.1408515E-1,-3.294614E-1,1E1,-5.930504E-1,-1.7370425E-1,1.3782289E0,7.904395E-1,-6.945392E-1,-5.5992556E-1,8.0823374E-1,1.9912618E-1,6.84722E-1,5E0,7.2489464E-1,8.4188867E-1,-6.987679E-1,-6.62824E-1,1.6E1,1.7174528E0,8E0,-2.737835E-1,3E0,3.5362425E-1,1.4901481E0,3.5362425E-1,-1.237509E0,9E0,1.2628433E0,1.8E1,1.263195E-1,1.5086138E0,-1.5762233E0,-1.0098526E-1,7E0,1.6E1,-5.5559474E-1,1.5779349E1,1E0,-3.5976708E-1,1E0,1E1,1.4901481E0,5E0,3.5362425E-1,1.7939225E-1,3.781412E-1,1.0355386E0,1.2628433E0,6.3820624E-1,1E0,9.511301E-1,1E0,1.4895847E0,1.533986E0,1.6227888E0,-7.828995E-1,6.6357845E-1,1.2E1,8.779191E0,1.8E1,8.542056E0,9E0,5.80929E-1,1.1865567E1,-3.3740342E0,4.4931213E1,9.0629265E1,-6.3501667E1,-1.1452944E2,1.320748E1,-7.887431E1,4.751925E1,1.0170619E2,-5.556164E1,9.403043E0,3.933952E1,1.1757137E2,-2.2755442E0,-4.9379356E1,9.482033E0,-9.883041E1,-1.365548E2,2.2903778E1,-7.080419E1,-1.3049672E1,-3.731573E1,3.7333588E1,9.104777E0,7.5063065E1,-4.6823165E-1,-4.7946255E1,-7.44611E1,-2.197872E1,8.206662E0,-5.5868763E1,9.0444984E1,2.0464441E1,6.1303097E1,-5.926334E0,-6.2775593E1,-1.2797832E1,-3.997103E1,-2.5397974E1,4.7758614E1,1.8662796E1,-3.594354E1,1.2588216E0,3.6068474E1,-7.4833865E0,-1.6597204E1,2.7827045E1,-6.1960804E1,4.5464622E1,3.711638E1,9.719417E1,-7.888421E1,-1.4013454E2,9.097644E0,3.814765E1,1.0884648E1,-6.052773E1],"split_indices":[4,4,1,4,4,4,4,4,4,2,4,4,1,4,4,4,4,1,2,0,4,1,2,2,2,2,1,2,1,2,4,4,2,1,1,2,0,1,4,0,0,2,1,2,4,4,2,2,4,1,4,0,4,4,4,2,4,1,0,1,0,0,2,0,0,0,0,0,0,0,0,0,0,0,0,0,0,0,0,0,0,0,0,0,0,0,0,0,0,0,0,0,0,0,0,0,0,0,0,0,0,0,0,0,0,0,0,0,0,0,0,0,0,0,0,0,0,0,0,0,0],"split_type":[0,0,0,0,0,0,0,0,0,0,0,0,0,0,0,0,0,0,0,0,0,0,0,0,0,0,0,0,0,0,0,0,0,0,0,0,0,0,0,0,0,0,0,0,0,0,0,0,0,0,0,0,0,0,0,0,0,0,0,0,0,0,0,0,0,0,0,0,0,0,0,0,0,0,0,0,0,0,0,0,0,0,0,0,0,0,0,0,0,0,0,0,0,0,0,0,0,0,0,0,0,0,0,0,0,0,0,0,0,0,0,0,0,0,0,0,0,0,0,0,0],"sum_hessian":[2.5057E4,1.5137E4,9.92E3,1.01E4,5.037E3,5.666E3,4.254E3,8.02E3,2.08E3,1.185E3,3.852E3,4.205E3,1.461E3,1.329E3,2.925E3,7.619E3,4.01E2,1.81E2,1.899E3,9.06E2,2.79E2,2.407E3,1.445E3,1.336E3,2.869E3,8.11E2,6.5E2,1.024E3,3.05E2,1.41E2,2.784E3,7.524E3,9.5E1,1.84E2,2.17E2,1.54E2,2.7E1,1.767E3,1.32E2,6.37E2,2.69E2,1.02E2,1.77E2,4.69E2,1.938E3,9.21E2,5.24E2,1.241E3,9.5E1,1.817E3,1.052E3,5.2E1,7.59E2,2.85E2,3.65E2,8.44E2,1.8E2,2.78E2,2.7E1,1.12E2,2.9E1,2.21E3,5.74E2,1.493E3,6.031E3,6.3E1,3.2E1,8.8E1,9.6E1,1.54E2,6.3E1,5E1,1.04E2,9.5E1,1.672E3,8.5E1,4.7E1,1.1E2,5.27E2,2.41E2,2.8E1,8.1E1,2.1E1,1.01E2,7.6E1,3.4E2,1.29E2,1.814E3,1.24E2,7.6E2,1.61E2,2.14E2,3.1E2,1.157E3,8.4E1,5E1,4.5E1,4.8E1,1.769E3,4.53E2,5.99E2,2.9E1,2.3E1,3.28E2,4.31E2,1.31E2,1.54E2,2.14E2,1.51E2,1.31E2,7.13E2,1.3E2,5E1,3.8E1,2.4E2,8.5E1,2.7E1,1.921E3,2.89E2,4.08E2,1.66E2],"tree_param":{"num_deleted":"0","num_feature":"5","num_nodes":"121","size_leaf_vector":"1"}},{"base_weights":[-1.20318E0,-1.3083151E1,6.091507E1,5.6702686E1,-2.0541441E1,-1.8505699E2,9.043935E1,-7.74607E1,2.9596875E2,-3.8412948E0,-6.583038E1,-7.4047585E1,-4.567067E2,2.1047894E2,5.486537E0,-7.0850507E2,-1.1053627E1,-3.8716577E2,3.7870056E2,-1.5326239E1,2.5002779E2,-1.6793718E2,1.5835298E1,2.868276E2,-2.7678113E2,1.8716208E1,-6.341978E2,3.5205204E1,3.1654282E2,9.801688E1,-1.5351628E2,-1.21759384E2,-1.4292853E2,8.484671E2,-5.1109516E1,-8.592699E1,6.85834E1,9.802505E1,4.9782068E2,7.136094E1,-2.8248436E1,3.9946774E2,-4.1999246E2,-5.854158E2,-7.9192154E1,1.31526E2,-1.7822043E2,6.1642615E2,1.225911E2,-7.1463646E1,-8.2637566E1,-7.1278326E2,-2.4096418E1,-3.4259607E2,1.517724E2,5.0163165E2,1.7903E2,4.2639493E2,5.383603E1,-4.678299E2,3.5128716E1,-2.672179E1,1.3467877E1,5.9293392E1,1.0246114E2,-7.258647E1,8.989375E-1,-1.8701515E1,4.060368E1,6.1982094E1,2.0777784E1,1.3803782E1,-4.0923805E1,-1.0338753E0,-1.6195875E1,6.633475E1,2.0015135E1,-6.769627E1,2.3555786E1,-1.18521385E2,-4.39663E1,-1.6921581E1,1.6395605E1,5.4428997E1,2.7453582E0,-4.500427E1,-5.6722593E0,1.0605788E2,2.999603E1,-1.789614E1,3.9846237E1,2.0127913E1,-5.3327084E1,-6.0473305E1,-1.0633655E2,-9.488088E0,-1.0405653E2,7.034179E1,-9.1673355E0,6.3745026E1,3.56972E1,3.2328194E1,-7.4324274E0,6.022317E1,-2.3777645E1,-1.66482E1,1.1509624E1,-6.3635498E1,8.848861E0,-1.582741E1,2.8030115E1],"categories":[],"categories_nodes":[],"categories_segments":[],"categories_sizes":[],"default_left":[0,0,0,0,0,0,0,0,0,0,0,0,0,0,0,0,0,0,0,0,0,0,0,0,0,0,0,0,0,0,0,0,0,0,0,0,0,0,0,0,0,0,0,0,0,0,0,0,0,0,0,0,0,0,0,0,0,0,0,0,0,0,0,0,0,0,0,0,0,0,0,0,0,0,0,0,0,0,0,0,0,0,0,0,0,0,0,0,0,0,0,0,0,0,0,0,0,0,0,0,0,0,0,0,0,0,0,0,0,0,0],"id":12,"left_children":[1,3,5,7,9,11,13,15,17,19,21,23,25,27,29,31,33,35,37,39,41,43,45,47,49,-1,51,53,55,57,59,61,-1,63,65,-1,-1,67,69,71,73,75,77,79,81,83,85,87,89,-1,91,93,-1,95,97,99,101,103,105,107,109,-1,-1,-1,-1,-1,-1,-1,-1,-1,-1,-1,-1,-1,-1,-1,-1,-1,-1,-1,-1,-1,-1,-1,-1,-1,-1,-1,-1,-1,-1,-1,-1,-1,-1,-1,-1,-1,-1,-1,-1,-1,-1,-1,-1,-1,-1,-1,-1,-1,-1],"loss_changes":[1.8643954E7,1.103957E7,2.947201E7,6.576525E7,1.4491823E7,1.3083899E7,3.6934916E7,5.5014496E7,4.17431E7,4.082324E7,4.304662E7,2.2759452E7,1.4518098E7,2.789276E7,3.1235156E7,5.2690304E7,4.097929E7,4.1114716E7,2.1917392E7,1.5006944E7,6.0845224E7,8.49444E7,6.4433764E7,5.987229E6,1.6857292E7,0E0,2.887588E6,2.5022244E7,2.3707896E7,1.9446808E7,4.6324816E7,2.6470662E6,0E0,1.77804E6,4.611419E7,0E0,0E0,1.7371694E7,1.6183848E7,5.575044E7,2.7915844E7,2.5954624E7,1.8858182E7,3.4622656E7,4.1463788E7,7.722237E7,3.5378148E7,4.882555E6,6.393724E6,0E0,1.7891318E7,2.463148E6,0E0,2.3069544E7,5.834884E7,7.592136E6,1.9686228E7,1.8712126E7,1.5999287E7,2.7526116E7,2.3231292E7,0E0,0E0,0E0,0E0,0E0,0E0,0E0,0E0,0E0,0E0,0E0,0E0,0E0,0E0,0E0,0E0,0E0,0E0,0E0,0E0,0E0,0E0,0E0,0E0,0E0,0E0,0E0,0E0,0E0,0E0,0E0,0E0,0E0,0E0,0E0,0E0,0E0,0E0,0E0,0E0,0E0,0E0,0E0,0E0,0E0,0E0,0E0,0E0,0E0,0E0],"parents":[2147483647,0,0,1,1,2,2,3,3,4,4,5,5,6,6,7,7,8,8,9,9,10,10,11,11,12,12,13,13,14,14,15,15,16,16,17,17,18,18,19,19,20,20,21,21,22,22,23,23,24,24,26,26,27,27,28,28,29,29,30,30,31,31,33,33,34,34,37,37,38,38,39,39,40,40,41,41,42,42,43,43,44,44,45,45,46,46,47,47,48,48,50,50,51,51,53,53,54,54,55,55,56,56,57,57,58,58,59,59,60,60],"right_children":[2,4,6,8,10,12,14,16,18,20,22,24,26,28,30,32,34,36,38,40,42,44,46,48,50,-1,52,54,56,58,60,62,-1,64,66,-1,-1,68,70,72,74,76,78,80,82,84,86,88,90,-1,92,94,-1,96,98,100,102,104,106,108,110,-1,-1,-1,-1,-1,-1,-1,-1,-1,-1,-1,-1,-1,-1,-1,-1,-1,-1,-1,-1,-1,-1,-1,-1,-1,-1,-1,-1,-1,-1,-1,-1,-1,-1,-1,-1,-1,-1,-1,-1,-1,-1,-1,-1,-1,-1,-1,-1,-1,-1],"split_conditions":[9E0,-1.237509E0,-1.237509E0,1.3E1,8.3495665E-1,1E1,1.263195E-1,-9.506807E-1,-1.39709E0,7.2335434E-1,3.5362425E-1,9E0,-1.4648138E0,-7.828995E-1,1E1,-1.1738853E0,-8.3907837E-1,5E0,-1.4648138E0,2E0,6E0,1.0581614E0,1.3E1,-1.1738853E0,-1.062283E0,1.8716208E1,1.0581614E0,-3.9266902E-1,1E1,2E0,-6.158737E-1,1E0,-1.4292853E2,4E0,1E0,-8.592699E1,6.85834E1,7.2335434E-1,1.8E1,5.0014967E-1,8E0,2E0,8.0823374E-1,-7.828995E-1,1.5045707E0,5.80929E-1,1.5E1,2E0,-1.6946433E-1,-7.1463646E1,8.3495665E-1,1.1E1,-2.4096418E1,1E1,1.6534266E-1,-3.2829002E-1,-3.2829002E-1,1.1697637E0,9E0,1.4901481E0,1.2628433E0,-2.672179E1,1.3467877E1,5.9293392E1,1.0246114E2,-7.258647E1,8.989375E-1,-1.8701515E1,4.060368E1,6.1982094E1,2.0777784E1,1.3803782E1,-4.0923805E1,-1.0338753E0,-1.6195875E1,6.633475E1,2.0015135E1,-6.769627E1,2.3555786E1,-1.18521385E2,-4.39663E1,-1.6921581E1,1.6395605E1,5.4428997E1,2.7453582E0,-4.500427E1,-5.6722593E0,1.0605788E2,2.999603E1,-1.789614E1,3.9846237E1,2.0127913E1,-5.3327084E1,-6.0473305E1,-1.0633655E2,-9.488088E0,-1.0405653E2,7.034179E1,-9.1673355E0,6.3745026E1,3.56972E1,3.2328194E1,-7.4324274E0,6.022317E1,-2.3777645E1,-1.66482E1,1.1509624E1,-6.3635498E1,8.848861E0,-1.582741E1,2.8030115E1],"split_indices":[0,2,2,1,3,0,2,3,3,3,2,1,2,2,0,3,3,0,2,1,0,3,1,3,3,0,3,3,0,1,3,0,0,0,1,0,0,3,1,3,0,0,2,2,3,2,1,1,3,0,3,0,0,0,3,2,2,3,1,2,2,0,0,0,0,0,0,0,0,0,0,0,0,0,0,0,0,0,0,0,0,0,0,0,0,0,0,0,0,0,0,0,0,0,0,0,0,0,0,0,0,0,0,0,0,0,0,0,0,0,0],"split_type":[0,0,0,0,0,0,0,0,0,0,0,0,0,0,0,0,0,0,0,0,0,0,0,0,0,0,0,0,0,0,0,0,0,0,0,0,0,0,0,0,0,0,0,0,0,0,0,0,0,0,0,0,0,0,0,0,0,0,0,0,0,0,0,0,0,0,0,0,0,0,0,0,0,0,0,0,0,0,0,0,0,0,0,0,0,0,0,0,0,0,0,0,0,0,0,0,0,0,0,0,0,0,0,0,0,0,0,0,0,0,0],"sum_hessian":[2.5262E4,2.1207E4,4.055E3,2.047E3,1.916E4,4.34E2,3.621E3,1.312E3,7.35E2,1.3999E4,5.161E3,3.09E2,1.25E2,1.5E3,2.121E3,1.24E2,1.188E3,7.9E1,6.56E2,1.3394E4,6.05E2,2.293E3,2.868E3,1.11E2,1.98E2,2.7E1,9.8E1,5.66E2,9.34E2,1.341E3,7.8E2,6.9E1,5.5E1,5.2E1,1.136E3,5.5E1,2.4E1,1.96E2,4.6E2,1.737E3,1.1657E4,4.95E2,1.1E2,4.01E2,1.892E3,1.797E3,1.071E3,3.6E1,7.5E1,6E1,1.38E2,8.1E1,1.7E1,1.33E2,4.33E2,3.97E2,5.37E2,1.58E2,1.183E3,2.92E2,4.88E2,4.4E1,2.5E1,2.3E1,2.9E1,9.2E1,1.044E3,1.02E2,9.4E1,3.23E2,1.37E2,1.526E3,2.11E2,1.0281E4,1.376E3,2.12E2,2.83E2,7.9E1,3.1E1,7.7E1,3.24E2,1.381E3,5.11E2,3.61E2,1.436E3,3.3E2,7.41E2,1.4E1,2.2E1,3.6E1,3.9E1,8.5E1,5.3E1,6.4E1,1.7E1,9.9E1,3.4E1,1.32E2,3.01E2,2.03E2,1.94E2,3.42E2,1.95E2,1.25E2,3.3E1,2.57E2,9.26E2,2.24E2,6.8E1,2.73E2,2.15E2],"tree_param":{"num_deleted":"0","num_feature":"5","num_nodes":"111","size_leaf_vector":"1"}},{"base_weights":[8.703164E-1,-2.2849277E1,3.7086704E1,1.4629086E1,-9.774987E1,-1.2723308E1,1.02620636E2,1.3257323E2,-3.9780056E1,-3.369912E2,-2.360919E1,-6.0024517E1,1.6058229E2,1.3342598E2,-4.493532E2,9.413875E1,3.4696582E2,-4.467858E2,-1.7413101E1,-5.471541E2,-1.5034698E2,3.8458517E2,-5.9162365E1,-1.0568032E2,3.254686E2,2.0851994E2,-4.639019E2,3.157862E2,5.0102924E1,-1.0203147E3,-3.2640505E0,-7.131427E2,1.1323754E2,4.0891833E2,-5.7752632E1,3.7703836E2,-5.649219E2,2.2200374E2,-4.5138077E1,-4.981974E1,-6.618984E2,9.157346E0,-3.9152344E2,-5.2894394E1,7.670396E2,2.1052874E1,-1.751043E2,5.455375E1,-1.7484872E2,4.781946E2,8.166526E1,6.220785E2,1.8637715E2,-8.203981E1,-1.1176636E2,1.7963663E2,7.3406915E2,-2.6827957E2,1.08384735E2,-1.2799593E2,-7.0029065E2,3.7861026E2,-1.12564415E2,-9.8332184E1,-5.3320675E1,7.685888E0,3.6700188E1,3.523982E1,1.2309257E2,-4.2841983E-1,8.311978E1,-3.7698116E0,-7.0340416E1,3.1053553E1,-4.5029278E1,-7.183258E0,4.5218597E1,-3.697674E1,3.2231598E1,-1.0822841E2,-5.7959156E1,-1.142044E2,1.1319488E1,3.787765E1,-5.3727474E1,7.7035127E0,-7.510842E1,-5.036987E0,8.857705E1,-4.5608665E1,6.174358E0,2.5228722E1,-2.5605473E1,1.0660872E1,-6.3954235E1,3.4174544E-1,-2.9171534E1,3.475343E1,8.996513E1,-1.3205993E1,5.2200287E1,7.252264E1,4.8934593E1,2.2916025E1,-2.7385414E0,-8.286002E1,9.478991E1,1.7367285E0,4.61835E1,7.922511E1,5.9121585E0,6.4526024E0,-3.842384E1,6.240409E1,7.449971E0,-1.5598335E1,-1.26148155E2,7.289675E1,-6.0617184E1],"categories":[],"categories_nodes":[],"categories_segments":[],"categories_sizes":[],"default_left":[0,0,0,0,0,0,0,0,0,0,0,0,0,0,0,0,0,0,0,0,0,0,0,0,0,0,0,0,0,0,0,0,0,0,0,0,0,0,0,0,0,0,0,0,0,0,0,0,0,0,0,0,0,0,0,0,0,0,0,0,0,0,0,0,0,0,0,0,0,0,0,0,0,0,0,0,0,0,0,0,0,0,0,0,0,0,0,0,0,0,0,0,0,0,0,0,0,0,0,0,0,0,0,0,0,0,0,0,0,0,0,0,0,0,0,0,0,0,0],"id":13,"left_children":[1,3,5,7,9,11,13,15,17,19,21,23,25,27,29,31,33,35,37,39,41,43,45,47,49,51,53,55,57,59,61,63,65,67,-1,69,71,73,75,77,79,81,83,85,87,89,91,93,95,97,99,101,103,105,-1,107,109,111,113,-1,115,117,-1,-1,-1,-1,-1,-1,-1,-1,-1,-1,-1,-1,-1,-1,-1,-1,-1,-1,-1,-1,-1,-1,-1,-1,-1,-1,-1,-1,-1,-1,-1,-1,-1,-1,-1,-1,-1,-1,-1,-1,-1,-1,-1,-1,-1,-1,-1,-1,-1,-1,-1,-1,-1,-1,-1,-1,-1],"loss_changes":[2.1658916E7,4.2768384E7,3.257195E7,6.5172336E7,9.011636E7,4.6489828E7,7.332909E7,2.6385E7,6.32614E7,4.706701E7,5.6331668E7,7.8442376E7,3.649928E7,6.20094E7,5.8068204E7,4.201799E7,2.8128884E7,3.544404E7,4.374666E7,3.2209472E7,2.454661E7,5.2075852E7,3.3205788E7,4.416475E7,1.7535924E7,1.0231856E7,2.162758E7,7.276292E7,5.204129E7,7.412912E6,5.5716628E7,2.538426E6,2.45094E7,2.0798424E7,0E0,7.9698985E6,2.3118024E7,4.0851228E7,7.843947E7,1.2859027E7,1.5254384E7,4.624E7,2.8720648E7,1.3302319E7,1.6155192E7,4.1013524E7,5.0576976E7,4.349783E7,5.798023E7,1.5656964E7,1.7291292E7,4.25502E5,9.828468E6,4.3844476E7,0E0,4.427297E7,1.2283856E7,1.6773618E7,4.1364576E7,0E0,1.4159868E7,3.390936E7,0E0,0E0,0E0,0E0,0E0,0E0,0E0,0E0,0E0,0E0,0E0,0E0,0E0,0E0,0E0,0E0,0E0,0E0,0E0,0E0,0E0,0E0,0E0,0E0,0E0,0E0,0E0,0E0,0E0,0E0,0E0,0E0,0E0,0E0,0E0,0E0,0E0,0E0,0E0,0E0,0E0,0E0,0E0,0E0,0E0,0E0,0E0,0E0,0E0,0E0,0E0,0E0,0E0,0E0,0E0,0E0,0E0],"parents":[2147483647,0,0,1,1,2,2,3,3,4,4,5,5,6,6,7,7,8,8,9,9,10,10,11,11,12,12,13,13,14,14,15,15,16,16,17,17,18,18,19,19,20,20,21,21,22,22,23,23,24,24,25,25,26,26,27,27,28,28,29,29,30,30,31,31,32,32,33,33,35,35,36,36,37,37,38,38,39,39,40,40,41,41,42,42,43,43,44,44,45,45,46,46,47,47,48,48,49,49,50,50,51,51,52,52,53,53,55,55,56,56,57,57,58,58,60,60,61,61],"right_children":[2,4,6,8,10,12,14,16,18,20,22,24,26,28,30,32,34,36,38,40,42,44,46,48,50,52,54,56,58,60,62,64,66,68,-1,70,72,74,76,78,80,82,84,86,88,90,92,94,96,98,100,102,104,106,-1,108,110,112,114,-1,116,118,-1,-1,-1,-1,-1,-1,-1,-1,-1,-1,-1,-1,-1,-1,-1,-1,-1,-1,-1,-1,-1,-1,-1,-1,-1,-1,-1,-1,-1,-1,-1,-1,-1,-1,-1,-1,-1,-1,-1,-1,-1,-1,-1,-1,-1,-1,-1,-1,-1,-1,-1,-1,-1,-1,-1,-1,-1],"split_conditions":[4.1408515E-1,-3.294614E-1,1E1,-5.042713E-1,-1.7370425E-1,1.3965533E0,1.616173E0,1.7E1,-3.9266902E-1,-1.6946433E-1,-1.2930289E-1,1.3929683E0,1.3929683E0,7.904395E-1,8.4188867E-1,-1.7538288E0,-4.563224E-1,4E0,-1.6741881E0,1E0,-2.4065867E-1,3E0,1.9912618E-1,6.84722E-1,9.80731E-1,1.4127632E0,1E0,7.2489464E-1,-1.062283E0,4E0,1.5776826E0,4E0,-6.158737E-1,-6.127843E-1,-5.7752632E1,1E0,-1.6995604E0,1.616173E0,1.616173E0,4E0,-3.0620354E-1,1E0,4E0,1.1E1,-1.5086924E0,-1.2854877E0,-1.2854877E0,1.0581614E0,2E0,6E0,1.616173E0,1E0,9E0,1.5045707E0,-1.1176636E2,3.8854733E-1,1.8E1,-1.5086924E0,-8.3907837E-1,-1.2799593E2,6E0,1.7E1,-1.12564415E2,-9.8332184E1,-5.3320675E1,7.685888E0,3.6700188E1,3.523982E1,1.2309257E2,-4.2841983E-1,8.311978E1,-3.7698116E0,-7.0340416E1,3.1053553E1,-4.5029278E1,-7.183258E0,4.5218597E1,-3.697674E1,3.2231598E1,-1.0822841E2,-5.7959156E1,-1.142044E2,1.1319488E1,3.787765E1,-5.3727474E1,7.7035127E0,-7.510842E1,-5.036987E0,8.857705E1,-4.5608665E1,6.174358E0,2.5228722E1,-2.5605473E1,1.0660872E1,-6.3954235E1,3.4174544E-1,-2.9171534E1,3.475343E1,8.996513E1,-1.3205993E1,5.2200287E1,7.252264E1,4.8934593E1,2.2916025E1,-2.7385414E0,-8.286002E1,9.478991E1,1.7367285E0,4.61835E1,7.922511E1,5.9121585E0,6.4526024E0,-3.842384E1,6.240409E1,7.449971E0,-1.5598335E1,-1.26148155E2,7.289675E1,-6.0617184E1],"split_indices":[4,4,1,3,4,4,3,1,3,3,4,3,3,4,4,4,4,0,4,0,4,0,4,4,4,4,0,4,3,0,4,0,3,4,0,0,4,3,3,1,4,0,1,1,3,3,3,3,1,1,3,0,0,3,0,3,1,3,3,0,0,1,0,0,0,0,0,0,0,0,0,0,0,0,0,0,0,0,0,0,0,0,0,0,0,0,0,0,0,0,0,0,0,0,0,0,0,0,0,0,0,0,0,0,0,0,0,0,0,0,0,0,0,0,0,0,0,0,0],"split_type":[0,0,0,0,0,0,0,0,0,0,0,0,0,0,0,0,0,0,0,0,0,0,0,0,0,0,0,0,0,0,0,0,0,0,0,0,0,0,0,0,0,0,0,0,0,0,0,0,0,0,0,0,0,0,0,0,0,0,0,0,0,0,0,0,0,0,0,0,0,0,0,0,0,0,0,0,0,0,0,0,0,0,0,0,0,0,0,0,0,0,0,0,0,0,0,0,0,0,0,0,0,0,0,0,0,0,0,0,0,0,0,0,0,0,0,0,0,0,0],"sum_hessian":[2.5211E4,1.5234E4,9.977E3,1.0154E4,5.08E3,5.669E3,4.308E3,3.205E3,6.949E3,1.201E3,3.879E3,4.454E3,1.215E3,4.081E3,2.27E2,2.719E3,4.86E2,3.61E2,6.588E3,5.64E2,6.37E2,3.1E2,3.569E3,3.983E3,4.71E2,1.129E3,8.6E1,1.279E3,2.802E3,9.9E1,1.28E2,6.2E1,2.657E3,4.56E2,3E1,4.5E1,3.16E2,6.83E2,5.905E3,1.06E2,4.58E2,3.84E2,2.53E2,1.45E2,1.65E2,2.11E3,1.459E3,1.201E3,2.782E3,2.89E2,1.82E2,5.6E1,1.073E3,5.5E1,3.1E1,9.66E2,3.13E2,4.33E2,2.369E3,5.3E1,4.6E1,9.6E1,3.2E1,2.3E1,3.9E1,2.325E3,3.32E2,4.28E2,2.8E1,2.5E1,2E1,6.6E1,2.5E2,6.04E2,7.9E1,5.605E3,3E2,5.7E1,4.9E1,7.3E1,3.85E2,3.1E1,3.53E2,4E1,2.13E2,1.23E2,2.2E1,2.1E1,1.44E2,1.65E2,1.945E3,2.32E2,1.227E3,1.118E3,8.3E1,1.102E3,1.68E3,2.22E2,6.7E1,1.23E2,5.9E1,2.9E1,2.7E1,8.94E2,1.79E2,3.2E1,2.3E1,6.14E2,3.52E2,2.88E2,2.5E1,1.12E2,3.21E2,1.45E2,2.224E3,2.4E1,2.2E1,7.1E1,2.5E1],"tree_param":{"num_deleted":"0","num_feature":"5","num_nodes":"119","size_leaf_vector":"1"}},{"base_weights":[1.9370484E0,2.5494194E2,-1.1949301E0,3.8536005E2,-1.3623677E2,-9.304689E1,8.755786E0,1.6232217E2,5.0168048E2,-2.6980335E1,-8.229465E0,6.010206E1,-2.4081866E2,1.03012375E2,-4.87685E0,1.159326E1,4.3219494E1,5.829926E2,1.785415E1,1.7687213E2,-3.6647745E2,6.1315647E1,-3.646913E2,2.0793709E1,2.6760123E2,-6.9436346E2,-1.0363331E0,-8.396331E0,8.765208E0,3.3854904E2,8.0266205E1,-1.8103462E0,3.781461E2,3.1641602E1,-4.543391E2,-1.6351434E2,7.632126E2,-1.9676984E2,-7.54287E2,1.0737989E2,-2.9004654E2,-7.9184E1,2.9245572E2,2.7662073E1,-9.717781E2,-3.8817284E1,3.463181E1,2.1629957E1,4.2831226E1,-3.018456E1,2.0258215E1,3.0207834E1,9.092773E1,-7.082457E1,-2.2584532E1,5.118058E1,-5.058163E1,4.4436024E1,9.124051E1,-4.746534E1,9.653865E0,-8.273509E1,9.03439E0,5.6813593E0,7.1545135E1,-3.8656616E1,1.2945045E2,5.2285854E1,1.3708147E1,-1.2741388E2,-8.0089676E1,-6.0840235E0,1.3630381E1,-1.1462225E0,9.610386E0],"categories":[],"categories_nodes":[],"categories_segments":[],"categories_sizes":[],"default_left":[0,0,0,0,0,0,0,0,0,0,0,0,0,0,0,0,0,0,0,0,0,0,0,0,0,0,0,0,0,0,0,0,0,0,0,0,0,0,0,0,0,0,0,0,0,0,0,0,0,0,0,0,0,0,0,0,0,0,0,0,0,0,0,0,0,0,0,0,0,0,0,0,0,0,0],"id":14,"left_children":[1,3,5,7,9,11,13,15,17,-1,-1,19,21,23,25,27,-1,29,-1,31,33,35,37,39,41,43,45,-1,-1,47,-1,49,51,-1,53,55,57,59,61,63,65,-1,67,-1,69,71,73,-1,-1,-1,-1,-1,-1,-1,-1,-1,-1,-1,-1,-1,-1,-1,-1,-1,-1,-1,-1,-1,-1,-1,-1,-1,-1,-1,-1],"loss_changes":[2.00244E7,1.5816688E7,2.28159E7,5.93754E6,5.39776E5,5.5234332E7,2.8941788E7,3.2898778E6,3.889732E6,0E0,0E0,5.978907E7,4.650567E7,3.8507296E7,5.210633E7,3.9255928E5,0E0,6.225572E6,0E0,3.3878896E7,1.56238E7,5.7251108E7,5.7487896E7,5.114172E7,2.5194184E7,2.9629624E7,2.637341E7,0E0,0E0,5.54793E5,0E0,3.072363E7,1.7623404E7,0E0,1.3125724E7,6.3828812E7,3.780756E6,5.0334776E7,1.6428432E7,4.565077E7,6.38177E7,0E0,3.311368E7,0E0,3.371312E6,3.6662216E7,2.8525892E7,0E0,0E0,0E0,0E0,0E0,0E0,0E0,0E0,0E0,0E0,0E0,0E0,0E0,0E0,0E0,0E0,0E0,0E0,0E0,0E0,0E0,0E0,0E0,0E0,0E0,0E0,0E0,0E0],"parents":[2147483647,0,0,1,1,2,2,3,3,4,4,5,5,6,6,7,7,8,8,11,11,12,12,13,13,14,14,15,15,17,17,19,19,20,20,21,21,22,22,23,23,24,24,25,25,26,26,29,29,31,31,32,32,34,34,35,35,36,36,37,37,38,38,39,39,40,40,42,42,44,44,45,45,46,46],"right_children":[2,4,6,8,10,12,14,16,18,-1,-1,20,22,24,26,28,-1,30,-1,32,34,36,38,40,42,44,46,-1,-1,48,-1,50,52,-1,54,56,58,60,62,64,66,-1,68,-1,70,72,74,-1,-1,-1,-1,-1,-1,-1,-1,-1,-1,-1,-1,-1,-1,-1,-1,-1,-1,-1,-1,-1,-1,-1,-1,-1,-1,-1,-1],"split_conditions":[-1.7777914E0,1.5045707E0,-1.3781792E0,-1.7947061E0,-1.4648138E0,-1.5762233E0,-9.4403255E-1,5.0014967E-1,1.0581614E0,-2.6980335E1,-8.229465E0,1.2628433E0,-5.042713E-1,-1.0913323E0,-9.1725075E-1,3E0,4.3219494E1,-5.5559474E-1,1.785415E1,1.1E1,-1.6202947E0,-7.27476E-1,1.3E1,-1.1491245E0,-1.4648138E0,-1.6202947E0,4.1408515E-1,-8.396331E0,8.765208E0,6E0,8.0266205E1,-2.810667E-1,1.1697637E0,3.1641602E1,1.7E1,9E0,4E0,-1.4416096E0,1.5045707E0,1.0581614E0,1.5045707E0,-7.9184E1,-1.0250826E0,2.7662073E1,3E0,1.4901481E0,1E1,2.1629957E1,4.2831226E1,-3.018456E1,2.0258215E1,3.0207834E1,9.092773E1,-7.082457E1,-2.2584532E1,5.118058E1,-5.058163E1,4.4436024E1,9.124051E1,-4.746534E1,9.653865E0,-8.273509E1,9.03439E0,5.6813593E0,7.1545135E1,-3.8656616E1,1.2945045E2,5.2285854E1,1.3708147E1,-1.2741388E2,-8.0089676E1,-6.0840235E0,1.3630381E1,-1.1462225E0,9.610386E0],"split_indices":[4,3,4,4,2,4,4,3,3,0,0,2,3,4,4,1,0,2,0,1,3,3,1,4,2,3,4,0,0,1,0,3,3,0,1,1,1,4,3,3,3,0,4,0,1,2,1,0,0,0,0,0,0,0,0,0,0,0,0,0,0,0,0,0,0,0,0,0,0,0,0,0,0,0,0],"split_type":[0,0,0,0,0,0,0,0,0,0,0,0,0,0,0,0,0,0,0,0,0,0,0,0,0,0,0,0,0,0,0,0,0,0,0,0,0,0,0,0,0,0,0,0,0,0,0,0,0,0,0,0,0,0,0,0,0,0,0,0,0,0,0,0,0,0,0,0,0,0,0,0,0,0,0],"sum_hessian":[2.5269E4,3.08E2,2.4961E4,2.31E2,7.7E1,2.439E3,2.2522E4,8E1,1.51E2,2.1E1,5.6E1,1.198E3,1.241E3,2.845E3,1.9677E4,5.2E1,2.8E1,1.2E2,3.1E1,9.41E2,2.57E2,3.61E2,8.8E2,1.898E3,9.47E2,1.08E2,1.9569E4,2.3E1,2.9E1,5.8E1,6.2E1,4.99E2,4.42E2,2.9E1,2.28E2,2.74E2,8.7E1,6.16E2,2.64E2,1.485E3,4.13E2,2.1E1,9.26E2,2.4E1,8.4E1,9.503E3,1.0066E4,2.6E1,3.2E1,2.02E2,2.97E2,3.88E2,5.4E1,1.07E2,1.21E2,9.2E1,1.82E2,2.9E1,5.8E1,3.16E2,3E2,2.43E2,2.1E1,1.372E3,1.13E2,3.9E2,2.3E1,3.72E2,5.54E2,2.8E1,5.6E1,8.442E3,1.061E3,5.753E3,4.313E3],"tree_param":{"num_deleted":"0","num_feature":"5","num_nodes":"75","size_leaf_vector":"1"}},{"base_weights":[-2.9620857E0,-2.3296473E1,2.798423E1,1.1992479E1,-9.0547264E1,4.78181E2,2.2327719E1,2.1463647E2,-1.1430937E1,-2.7849142E2,-2.7636658E1,1.5040577E1,7.0677997E2,-5.625418E1,5.7092873E1,2.6953808E1,4.3459442E2,-4.961177E1,1.4306468E2,-5.181277E2,-1.6080281E2,3.322744E2,-6.0339073E1,-1.9421724E1,2.5493504E1,1.1639294E2,4.2605533E2,-6.5103526E0,-3.3122488E2,2.0073488E2,9.191763E0,2.6661526E2,-2.536846E2,-4.0950082E2,5.8851117E2,-2.994525E1,-4.4604462E2,6.652638E2,8.254412E1,-6.1545264E2,-8.220462E1,8.591515E1,-1.9648608E2,-1.4459677E2,5.369817E2,1.1759258E1,-1.6519951E2,5.865619E1,2.8344822E1,-4.260522E1,5.401749E2,-1.9526784E2,-8.305083E2,5.9095856E1,3.710996E2,-2.3171461E2,2.3501137E1,4.6475143E0,4.075395E1,-7.1869835E1,-1.6999257E0,-1.5247382E1,-8.26314E1,7.3312706E1,1.1840487E1,-3.870142E0,5.5432697E1,-9.222524E1,-7.6644664E0,7.582705E1,1.4201166E1,3.4866352E0,6.003349E1,-5.091765E1,-9.6047295E1,2.6782126E0,-2.6474195E1,-9.987878E0,-6.449526E1,3.442252E0,-6.758708E1,7.2392936E0,7.6277245E1,-4.8262253E0,2.8526417E1,2.3204954E1,-2.4045586E1,-1.8295616E1,7.3216586E0,4.186604E1,1.0487319E2,2.3300241E1,-2.5603159E1,-9.697952E1,-6.859645E1,-5.663081E1,1.6980297E1,8.889327E1,2.374864E1,1.1994282E0,-6.9000725E1,1.01082756E2,1.2585415E0],"categories":[],"categories_nodes":[],"categories_segments":[],"categories_sizes":[],"default_left":[0,0,0,0,0,0,0,0,0,0,0,0,0,0,0,0,0,0,0,0,0,0,0,0,0,0,0,0,0,0,0,0,0,0,0,0,0,0,0,0,0,0,0,0,0,0,0,0,0,0,0,0,0,0,0,0,0,0,0,0,0,0,0,0,0,0,0,0,0,0,0,0,0,0,0,0,0,0,0,0,0,0,0,0,0,0,0,0,0,0,0,0,0,0,0,0,0,0,0,0,0,0,0],"id":15,"left_children":[1,3,5,7,9,11,13,15,17,19,21,23,25,27,29,31,33,35,37,39,41,43,45,-1,-1,-1,47,49,51,53,55,57,59,61,63,65,67,69,71,73,75,-1,77,79,81,83,85,-1,-1,87,89,91,93,95,97,99,101,-1,-1,-1,-1,-1,-1,-1,-1,-1,-1,-1,-1,-1,-1,-1,-1,-1,-1,-1,-1,-1,-1,-1,-1,-1,-1,-1,-1,-1,-1,-1,-1,-1,-1,-1,-1,-1,-1,-1,-1,-1,-1,-1,-1,-1,-1],"loss_changes":[1.5864657E7,3.6107104E7,2.544711E7,4.736892E7,6.1901092E7,1.3117676E7,2.6978112E7,4.267418E7,5.277751E7,3.694651E7,4.6205376E7,2.1579038E6,1.0155748E7,4.14288E7,4.7102816E7,3.7664976E7,6.208312E7,5.5918416E7,5.5978596E7,1.8277528E7,3.226947E7,3.1999064E7,2.7203764E7,0E0,0E0,0E0,1.046877E6,5.0656692E7,3.1334652E7,4.1289136E7,1.7706916E7,9.350026E6,2.8383764E7,7.801793E6,2.7311088E7,3.4994332E7,5.956319E7,8.846856E6,3.9231576E7,1.2454544E7,1.5986222E6,0E0,3.689193E7,9.438986E6,2.3966836E7,3.502947E7,4.3882616E7,0E0,0E0,3.9157124E7,9.386672E6,9.584186E6,1.327936E6,6.4901684E7,5.354901E7,3.2174998E7,5.223602E7,0E0,0E0,0E0,0E0,0E0,0E0,0E0,0E0,0E0,0E0,0E0,0E0,0E0,0E0,0E0,0E0,0E0,0E0,0E0,0E0,0E0,0E0,0E0,0E0,0E0,0E0,0E0,0E0,0E0,0E0,0E0,0E0,0E0,0E0,0E0,0E0,0E0,0E0,0E0,0E0,0E0,0E0,0E0,0E0,0E0,0E0],"parents":[2147483647,0,0,1,1,2,2,3,3,4,4,5,5,6,6,7,7,8,8,9,9,10,10,11,11,12,12,13,13,14,14,15,15,16,16,17,17,18,18,19,19,20,20,21,21,22,22,26,26,27,27,28,28,29,29,30,30,31,31,32,32,33,33,34,34,35,35,36,36,37,37,38,38,39,39,40,40,42,42,43,43,44,44,45,45,46,46,49,49,50,50,51,51,52,52,53,53,54,54,55,55,56,56],"right_children":[2,4,6,8,10,12,14,16,18,20,22,24,26,28,30,32,34,36,38,40,42,44,46,-1,-1,-1,48,50,52,54,56,58,60,62,64,66,68,70,72,74,76,-1,78,80,82,84,86,-1,-1,88,90,92,94,96,98,100,102,-1,-1,-1,-1,-1,-1,-1,-1,-1,-1,-1,-1,-1,-1,-1,-1,-1,-1,-1,-1,-1,-1,-1,-1,-1,-1,-1,-1,-1,-1,-1,-1,-1,-1,-1,-1,-1,-1,-1,-1,-1,-1,-1,-1,-1,-1],"split_conditions":[4.1408515E-1,-3.4426185E-1,4.2677125E-1,-1.2854877E0,-1.7370425E-1,9E0,-6.158737E-1,-1.5086924E0,-5.930504E-1,-6.158737E-1,-1.2930289E-1,1E0,3.5362425E-1,1.2628433E0,5.374033E-2,-1.6202947E0,-1.665026E0,-6.945392E-1,-5.5992556E-1,1.2628433E0,-5.042713E-1,-1.631325E-1,1.9912618E-1,-1.9421724E1,2.5493504E1,1.1639294E2,1E1,1.6065787E0,-9.506807E-1,-2.810667E-1,4.923161E-1,5E0,-5.5559474E-1,1.263195E-1,-7.304832E-1,-6.987679E-1,-6.62824E-1,1.6E1,1.7174528E0,-1.062283E0,1.7E1,8.591515E1,8.0823374E-1,1.2E1,1.1E1,1.5895353E-1,-1.2854877E0,5.865619E1,2.8344822E1,7E0,9E0,4.5566735E-1,8E0,6.1706275E-1,6.84722E-1,4.6835345E-1,4.9936393E-1,4.6475143E0,4.075395E1,-7.1869835E1,-1.6999257E0,-1.5247382E1,-8.26314E1,7.3312706E1,1.1840487E1,-3.870142E0,5.5432697E1,-9.222524E1,-7.6644664E0,7.582705E1,1.4201166E1,3.4866352E0,6.003349E1,-5.091765E1,-9.6047295E1,2.6782126E0,-2.6474195E1,-9.987878E0,-6.449526E1,3.442252E0,-6.758708E1,7.2392936E0,7.6277245E1,-4.8262253E0,2.8526417E1,2.3204954E1,-2.4045586E1,-1.8295616E1,7.3216586E0,4.186604E1,1.0487319E2,2.3300241E1,-2.5603159E1,-9.697952E1,-6.859645E1,-5.663081E1,1.6980297E1,8.889327E1,2.374864E1,1.1994282E0,-6.9000725E1,1.01082756E2,1.2585415E0],"split_indices":[4,4,4,3,4,1,3,3,4,3,4,1,2,2,3,3,4,4,4,2,3,4,4,0,0,0,1,4,3,3,4,1,2,2,4,4,4,1,2,3,1,0,2,1,1,4,3,0,0,1,1,4,1,4,4,4,4,0,0,0,0,0,0,0,0,0,0,0,0,0,0,0,0,0,0,0,0,0,0,0,0,0,0,0,0,0,0,0,0,0,0,0,0,0,0,0,0,0,0,0,0,0,0],"split_type":[0,0,0,0,0,0,0,0,0,0,0,0,0,0,0,0,0,0,0,0,0,0,0,0,0,0,0,0,0,0,0,0,0,0,0,0,0,0,0,0,0,0,0,0,0,0,0,0,0,0,0,0,0,0,0,0,0,0,0,0,0,0,0,0,0,0,0,0,0,0,0,0,0,0,0,0,0,0,0,0,0,0,0,0,0,0,0,0,0,0,0,0,0,0,0,0,0,0,0,0,0,0,0],"sum_hessian":[2.5209E4,1.5213E4,9.996E3,9.978E3,5.235E3,1.23E2,9.873E3,1.033E3,8.945E3,1.312E3,3.923E3,4.1E1,8.2E1,3.028E3,6.845E3,5.58E2,4.75E2,7.173E3,1.772E3,4.31E2,8.81E2,3.26E2,3.597E3,2.2E1,1.9E1,3E1,5.2E1,2.565E3,4.63E2,1.711E3,5.134E3,3.01E2,2.57E2,7.3E1,4.02E2,6.835E3,3.38E2,1.83E2,1.589E3,3.52E2,7.9E1,2.9E1,8.52E2,9.8E1,2.28E2,2.132E3,1.465E3,2.3E1,2.9E1,2.407E3,1.58E2,3.65E2,9.8E1,9.35E2,7.76E2,2.87E2,4.847E3,1.18E2,1.83E2,8.6E1,1.71E2,4.6E1,2.7E1,3.07E2,9.5E1,6.735E3,1E2,1.47E2,1.91E2,1.55E2,2.8E1,1.456E3,1.33E2,2.71E2,8.1E1,5E1,2.9E1,7.02E2,1.5E2,7.4E1,2.4E1,7.5E1,1.53E2,1.749E3,3.83E2,2.33E2,1.232E3,1.088E3,1.319E3,1.29E2,2.9E1,4.5E1,3.2E2,4.7E1,5.1E1,1.4E2,7.95E2,1.58E2,6.18E2,1.88E2,9.9E1,5.2E1,4.795E3],"tree_param":{"num_deleted":"0","num_feature":"5","num_nodes":"103","size_leaf_vector":"1"}},{"base_weights":[-2.4652011E0,-2.8588133E1,2.2403488E1,-1.6670802E2,-4.114976E0,1.3249564E2,9.240429E0,-2.0372964E2,1.1044748E2,7.811582E1,-5.9769722E1,5.465326E2,-3.2750378E1,-7.209499E1,4.6623756E1,-1.4141754E2,-3.635548E2,5.457086E2,-1.8056334E2,5.1018276E1,3.292538E2,-1.452042E2,-1.1799426E1,6.538552E2,-1.8808566E2,1.0781476E2,-1.355936E2,-2.5296846E1,-2.4353578E2,-7.13677E1,8.0103874E1,-2.1590237E2,4.659506E2,-1.5282034E2,-8.0392554E2,6.571465E1,4.391532E2,3.001313E2,-5.1719977E2,1.6170795E2,-5.332308E0,-8.52857E1,4.9534354E2,1.239434E1,-3.0099744E2,1.07090866E2,-1.0979307E2,5.3735E2,8.368989E2,4.0839915E0,-4.097772E1,7.478746E2,8.775736E0,-3.0349963E2,1.3919014E1,-5.7628185E1,2.0513582E2,-3.8556137E2,-3.488148E1,4.639075E1,-3.8846936E2,4.538891E2,5.6917587E1,-4.858314E1,-1.1078344E1,9.898975E1,1.5356765E1,-6.7007103E0,-8.064769E1,-9.58872E1,-1.3504642E1,2.9033842E1,5.266409E1,5.3157898E1,8.953892E0,-5.779956E1,-3.6519283E1,4.725381E1,4.4058313E0,-1.4630127E1,9.879836E0,7.917223E1,9.182326E0,-1.6816343E1,3.710629E1,-6.3461395E1,-1.1251694E1,-2.463808E1,2.4335554E1,1.6030039E1,-1.8933638E1,3.0370026E1,6.871398E1,1.12794815E2,7.202529E1,3.2612328E1,1.129294E2,-2.2573774E1,1.1567878E1,1.7491692E1,-3.734617E1,4.4792545E1,-2.252984E1,-1.7858196E0,-3.2097454E1,3.9526455E1,2.9391828E0,-5.4931213E1,-1.4006264E1,9.325166E0,-5.14382E1,-1.7632674E0,4.2679966E1,6.3567715E0,-6.532522E1,4.420254E0,5.8827248E1,5.8743507E1,4.3995485E0],"categories":[],"categories_nodes":[],"categories_segments":[],"categories_sizes":[],"default_left":[0,0,0,0,0,0,0,0,0,0,0,0,0,0,0,0,0,0,0,0,0,0,0,0,0,0,0,0,0,0,0,0,0,0,0,0,0,0,0,0,0,0,0,0,0,0,0,0,0,0,0,0,0,0,0,0,0,0,0,0,0,0,0,0,0,0,0,0,0,0,0,0,0,0,0,0,0,0,0,0,0,0,0,0,0,0,0,0,0,0,0,0,0,0,0,0,0,0,0,0,0,0,0,0,0,0,0,0,0,0,0,0,0,0,0,0,0,0,0],"id":16,"left_children":[1,3,5,7,9,11,13,15,17,19,21,23,25,27,29,31,33,35,37,39,41,43,45,47,49,51,53,55,57,59,61,63,65,67,69,-1,71,73,75,77,79,-1,81,83,85,87,89,91,93,-1,-1,95,97,99,101,103,105,107,109,111,113,115,117,-1,-1,-1,-1,-1,-1,-1,-1,-1,-1,-1,-1,-1,-1,-1,-1,-1,-1,-1,-1,-1,-1,-1,-1,-1,-1,-1,-1,-1,-1,-1,-1,-1,-1,-1,-1,-1,-1,-1,-1,-1,-1,-1,-1,-1,-1,-1,-1,-1,-1,-1,-1,-1,-1,-1,-1],"loss_changes":[1.6398931E7,4.1613324E7,1.8739176E7,1.903566E7,4.787064E7,9.4503096E7,3.5128244E7,1.6231624E7,2.7838322E7,2.8714852E7,2.5563586E7,3.1186416E7,1.4297316E7,2.9181918E7,3.1272882E7,5.3392984E7,4.2380136E7,7.5635E5,2.151538E7,2.3777936E7,8.111674E7,5.507563E7,4.6567124E7,6.886272E6,2.6050295E6,2.6490832E7,1.4338647E7,2.1311936E7,2.3101268E7,6.5365464E7,5.3412988E7,2.973956E7,2.0961682E7,1.739069E7,1.5209288E7,0E0,4.72031E5,2.633165E6,5.09748E5,4.700698E7,3.7108772E7,0E0,4.310104E7,7.2335E7,7.0857464E7,8.704722E7,4.710208E7,7.245968E6,3.668952E6,0E0,0E0,8.640104E6,9.126597E6,9.06902E6,3.1558954E7,2.626126E7,1.1750103E7,1.8576136E7,1.9524418E7,3.1108962E7,5.677537E7,1.9793816E7,3.978348E7,0E0,0E0,0E0,0E0,0E0,0E0,0E0,0E0,0E0,0E0,0E0,0E0,0E0,0E0,0E0,0E0,0E0,0E0,0E0,0E0,0E0,0E0,0E0,0E0,0E0,0E0,0E0,0E0,0E0,0E0,0E0,0E0,0E0,0E0,0E0,0E0,0E0,0E0,0E0,0E0,0E0,0E0,0E0,0E0,0E0,0E0,0E0,0E0,0E0,0E0,0E0,0E0,0E0,0E0,0E0,0E0],"parents":[2147483647,0,0,1,1,2,2,3,3,4,4,5,5,6,6,7,7,8,8,9,9,10,10,11,11,12,12,13,13,14,14,15,15,16,16,17,17,18,18,19,19,20,20,21,21,22,22,23,23,24,24,25,25,26,26,27,27,28,28,29,29,30,30,31,31,32,32,33,33,34,34,36,36,37,37,38,38,39,39,40,40,42,42,43,43,44,44,45,45,46,46,47,47,48,48,51,51,52,52,53,53,54,54,55,55,56,56,57,57,58,58,59,59,60,60,61,61,62,62],"right_children":[2,4,6,8,10,12,14,16,18,20,22,24,26,28,30,32,34,36,38,40,42,44,46,48,50,52,54,56,58,60,62,64,66,68,70,-1,72,74,76,78,80,-1,82,84,86,88,90,92,94,-1,-1,96,98,100,102,104,106,108,110,112,114,116,118,-1,-1,-1,-1,-1,-1,-1,-1,-1,-1,-1,-1,-1,-1,-1,-1,-1,-1,-1,-1,-1,-1,-1,-1,-1,-1,-1,-1,-1,-1,-1,-1,-1,-1,-1,-1,-1,-1,-1,-1,-1,-1,-1,-1,-1,-1,-1,-1,-1,-1,-1,-1,-1,-1,-1,-1],"split_conditions":[5E0,-1.1738853E0,-1.2854877E0,1.2999979E0,-5.7862006E-2,-7.079301E-1,-2.810667E-1,3.901225E-1,4E0,-1.6946433E-1,-4.105115E-1,1E1,8E0,-5.042713E-1,-1.0913323E0,2.837002E-1,-1.39709E0,1.4747843E0,2E0,-3.4426185E-1,-1.4705058E0,-9.4403255E-1,8.3495665E-1,-9.1725075E-1,-1.6202947E0,6E0,4.5566735E-1,-6.158737E-1,-3.9266902E-1,1.3E1,-1.6946433E-1,4E0,2E0,4E0,4E0,6.571465E1,4E0,1E0,4E0,-8.3907837E-1,6E0,-8.52857E1,7E0,-1.2386321E0,7.2335434E-1,1.6534266E-1,1.08913906E-1,-1.6202947E0,-8.7496376E-1,4.0839915E0,-4.097772E1,-1.5086924E0,2.837002E-1,-6.987679E-1,7.840964E-1,1E1,9.80731E-1,-7.926327E-2,1E1,1E1,-1.5762233E0,-5.0918114E-1,-1.0250826E0,-4.858314E1,-1.1078344E1,9.898975E1,1.5356765E1,-6.7007103E0,-8.064769E1,-9.58872E1,-1.3504642E1,2.9033842E1,5.266409E1,5.3157898E1,8.953892E0,-5.779956E1,-3.6519283E1,4.725381E1,4.4058313E0,-1.4630127E1,9.879836E0,7.917223E1,9.182326E0,-1.6816343E1,3.710629E1,-6.3461395E1,-1.1251694E1,-2.463808E1,2.4335554E1,1.6030039E1,-1.8933638E1,3.0370026E1,6.871398E1,1.12794815E2,7.202529E1,3.2612328E1,1.129294E2,-2.2573774E1,1.1567878E1,1.7491692E1,-3.734617E1,4.4792545E1,-2.252984E1,-1.7858196E0,-3.2097454E1,3.9526455E1,2.9391828E0,-5.4931213E1,-1.4006264E1,9.325166E0,-5.14382E1,-1.7632674E0,4.2679966E1,6.3567715E0,-6.532522E1,4.420254E0,5.8827248E1,5.8743507E1,4.3995485E0],"split_indices":[0,3,3,4,3,4,3,4,1,3,4,0,0,3,4,4,3,4,0,4,4,4,3,4,3,1,4,3,3,1,3,1,0,0,0,0,0,0,0,3,1,0,1,4,3,3,4,3,4,0,0,3,4,4,4,0,4,4,1,1,4,4,4,0,0,0,0,0,0,0,0,0,0,0,0,0,0,0,0,0,0,0,0,0,0,0,0,0,0,0,0,0,0,0,0,0,0,0,0,0,0,0,0,0,0,0,0,0,0,0,0,0,0,0,0,0,0,0,0],"split_type":[0,0,0,0,0,0,0,0,0,0,0,0,0,0,0,0,0,0,0,0,0,0,0,0,0,0,0,0,0,0,0,0,0,0,0,0,0,0,0,0,0,0,0,0,0,0,0,0,0,0,0,0,0,0,0,0,0,0,0,0,0,0,0,0,0,0,0,0,0,0,0,0,0,0,0,0,0,0,0,0,0,0,0,0,0,0,0,0,0,0,0,0,0,0,0,0,0,0,0,0,0,0,0,0,0,0,0,0,0,0,0,0,0,0,0,0,0,0,0],"sum_hessian":[2.5241E4,1.231E4,1.2931E4,1.852E3,1.0458E4,1.38E3,1.1551E4,1.634E3,2.18E2,4.221E3,6.237E3,3.93E2,9.87E2,3.637E3,7.914E3,1.177E3,4.57E2,8.7E1,1.31E2,3.811E3,4.1E2,2.242E3,3.995E3,3.43E2,5E1,4.17E2,5.7E2,2.858E3,7.79E2,1.749E3,6.165E3,1.049E3,1.28E2,3.1E2,1.47E2,4E1,4.7E1,5.4E1,7.7E1,1.285E3,2.526E3,5E1,3.6E2,1.115E3,1.127E3,1.805E3,2.19E3,2.12E2,1.31E2,2.5E1,2.5E1,5.5E1,3.62E2,2.68E2,3.02E2,2.507E3,3.51E2,4.63E2,3.16E2,1.276E3,4.73E2,3.59E2,5.806E3,2.93E2,7.56E2,4.7E1,8.1E1,2.75E2,3.5E1,1.19E2,2.8E1,1.9E1,2.8E1,2.5E1,2.9E1,5.3E1,2.4E1,3.52E2,9.33E2,1.073E3,1.453E3,2.07E2,1.53E2,7.42E2,3.73E2,4.06E2,7.21E2,5.02E2,1.303E3,4.98E2,1.692E3,8.4E1,1.28E2,3.5E1,9.6E1,2.7E1,2.8E1,1.13E2,2.49E2,3.4E1,2.34E2,1.07E2,1.95E2,2.179E3,3.28E2,1.68E2,1.83E2,2.77E2,1.86E2,2.5E2,6.6E1,1.093E3,1.83E2,1.75E2,2.98E2,8.9E1,2.7E2,1.37E2,5.669E3],"tree_param":{"num_deleted":"0","num_feature":"5","num_nodes":"119","size_leaf_vector":"1"}},{"base_weights":[2.979738E0,1.0663204E2,-2.6088853E0,1.5703847E2,-2.820136E2,-1.7653603E2,8.367781E0,2.9462772E2,7.5647545E1,-7.253197E1,-1.9632273E1,-3.7588354E2,-9.351395E1,8.158958E1,-2.162222E0,5.950407E1,4.9166843E2,3.277538E1,5.910766E2,-6.30608E0,6.2555633E0,-4.0581917E1,-6.416375E2,2.9751712E2,-2.185825E2,-2.0318947E0,2.4786028E2,-6.086262E2,1.3200979E0,-2.7406552E2,2.674892E2,8.522201E1,3.31853E2,2.866416E2,-7.132007E1,4.7453358E1,6.441146E1,-3.855666E2,3.8802054E2,-2.4007384E2,-8.9445905E2,5.655402E2,3.9978996E1,-2.635055E2,7.7770836E1,7.357931E1,-2.7721432E2,-7.462847E1,2.7018622E2,1.8325218E1,-9.0057263E2,3.900089E2,-7.834813E-1,-1.1250857E1,-5.412322E1,1.2804883E1,3.4093082E1,7.1809554E0,5.75366E1,2.1295767E1,6.5070885E1,-1.3216997E1,7.966196E1,2.4816809E1,-9.218826E1,2.4958433E1,6.2427174E1,-9.724179E1,-2.00837E0,-3.7358692E1,-1.0025635E2,7.231641E1,-6.682929E1,-1.7925936E1,7.719149E1,-1.470533E1,-7.10478E1,2.6889627E0,6.3568348E1,-3.6951763E1,1.1405767E2,4.612899E1,1.4738727E1,-1.1403235E2,-7.3248245E1,5.9544918E1,-1.1960497E1,-9.787175E0,1.125839E0],"categories":[],"categories_nodes":[],"categories_segments":[],"categories_sizes":[],"default_left":[0,0,0,0,0,0,0,0,0,0,0,0,0,0,0,0,0,0,0,0,0,0,0,0,0,0,0,0,0,0,0,0,0,0,0,0,0,0,0,0,0,0,0,0,0,0,0,0,0,0,0,0,0,0,0,0,0,0,0,0,0,0,0,0,0,0,0,0,0,0,0,0,0,0,0,0,0,0,0,0,0,0,0,0,0,0,0,0,0],"id":17,"left_children":[1,3,5,7,9,11,13,15,17,-1,19,21,23,25,27,29,31,33,35,-1,-1,37,39,41,43,45,47,49,51,53,55,-1,57,59,61,-1,-1,63,65,67,69,71,73,75,-1,77,79,-1,81,-1,83,85,87,-1,-1,-1,-1,-1,-1,-1,-1,-1,-1,-1,-1,-1,-1,-1,-1,-1,-1,-1,-1,-1,-1,-1,-1,-1,-1,-1,-1,-1,-1,-1,-1,-1,-1,-1,-1],"loss_changes":[1.4561481E7,2.5237332E7,4.553829E7,1.2732822E7,1.7200412E7,2.34E7,1.729968E7,1.9567884E7,1.5824579E7,0E0,3.3945897E5,3.704278E7,4.901964E7,3.9223124E7,4.142998E7,1.3532546E7,1.2970184E7,1.7541092E7,3.4312E4,0E0,0E0,2.7503944E7,2.3338816E7,1.675075E7,3.4175012E7,3.909571E7,2.1153932E7,2.6057868E7,1.5949147E7,3.1763045E6,1.185232E6,0E0,1.015384E7,5.038825E6,2.4980706E7,0E0,0E0,3.5236636E7,2.558767E6,1.464134E7,7.621272E6,2.3626584E7,2.0196926E7,3.773655E7,0E0,3.8667244E7,5.342252E7,0E0,2.1615824E7,0E0,2.469316E6,1.1064217E7,2.2684454E7,0E0,0E0,0E0,0E0,0E0,0E0,0E0,0E0,0E0,0E0,0E0,0E0,0E0,0E0,0E0,0E0,0E0,0E0,0E0,0E0,0E0,0E0,0E0,0E0,0E0,0E0,0E0,0E0,0E0,0E0,0E0,0E0,0E0,0E0,0E0,0E0],"parents":[2147483647,0,0,1,1,2,2,3,3,4,4,5,5,6,6,7,7,8,8,10,10,11,11,12,12,13,13,14,14,15,15,16,16,17,17,18,18,21,21,22,22,23,23,24,24,25,25,26,26,27,27,28,28,29,29,30,30,32,32,33,33,34,34,37,37,38,38,39,39,40,40,41,41,42,42,43,43,45,45,46,46,48,48,50,50,51,51,52,52],"right_children":[2,4,6,8,10,12,14,16,18,-1,20,22,24,26,28,30,32,34,36,-1,-1,38,40,42,44,46,48,50,52,54,56,-1,58,60,62,-1,-1,64,66,68,70,72,74,76,-1,78,80,-1,82,-1,84,86,88,-1,-1,-1,-1,-1,-1,-1,-1,-1,-1,-1,-1,-1,-1,-1,-1,-1,-1,-1,-1,-1,-1,-1,-1,-1,-1,-1,-1,-1,-1,-1,-1,-1,-1,-1,-1],"split_conditions":[-1.5987763E0,1.4901481E0,-1.3781792E0,-5.5559474E-1,1.7E1,-7.828995E-1,-9.4403255E-1,6E0,-1.6114625E0,-7.253197E1,-1.6946433E-1,6E0,-2.810667E-1,-1.0913323E0,-9.1725075E-1,-1.237509E0,1.2E1,-1.7777914E0,1.2E1,-6.30608E0,6.2555633E0,3E0,-1.5127928E0,1E1,1.7E1,-1.1491245E0,-1.4648138E0,-1.6202947E0,-8.968121E-1,-1.4648138E0,-7.828995E-1,8.522201E1,1.6E1,1.0355386E0,1.5045707E0,4.7453358E1,6.441146E1,-1.4648138E0,-1.062283E0,1.1E1,-1.237509E0,-1.4416096E0,1.2628433E0,1.3E1,7.7770836E1,1.0581614E0,1.5045707E0,-7.462847E1,-1.0250826E0,1.8325218E1,3E0,1.6E1,-6.127843E-1,-1.1250857E1,-5.412322E1,